%YAML:1.0
---
opencv_ml_svm:
   format: 3
   svmType: C_SVC
   kernel:
      type: RBF
      gamma: 5.0624999999999998e-01
   C: 1.2500000000000000e+01
   term_criteria: { epsilon:1.1920928955078125e-07, iterations:1000 }
   var_count: 324
   class_count: 30
   class_labels: !!opencv-matrix
      rows: 30
      cols: 1
      dt: i
      data: [ 0, 1, 2, 3, 4, 5, 6, 7, 8, 9, 10, 11, 12, 13, 14, 15, 16,
          17, 18, 19, 20, 21, 22, 23, 24, 25, 26, 27, 28, 29 ]
   sv_total: 172
   support_vectors:
      - [ 4.63728011e-01, 2.97737028e-02, 1.37992785e-04, 9.42840893e-03,
          4.63728011e-01, 1.75993860e-01, 3.21316242e-01, 4.63728011e-01,
          4.63728011e-01, 5.19594371e-01, 1.18278190e-01, 0., 0.,
          5.73660910e-01, 3.65935341e-02, 3.21611762e-02, 2.23061875e-01,
          5.73660910e-01, 4.15058166e-01, 4.32205081e-01, 4.98928994e-01,
          2.86871403e-01, 4.98928994e-01, 1.84317771e-02, 5.30890450e-02,
          2.93063130e-02, 2.27530062e-01, 5.75312674e-01, 1.94029287e-02,
          1.97459804e-03, 0., 9.30605456e-04, 0., 3.03301197e-02,
          5.75312674e-01, 5.75312674e-01, 5.75234473e-01, 3.05730756e-02,
          2.68318254e-04, 0., 4.20337688e-04, 2.14431044e-02,
          1.33068012e-02, 5.75234473e-01, 5.75234473e-01, 5.90772510e-01,
          7.87741318e-02, 1.45502120e-01, 1.59220025e-01, 4.05060835e-02,
          1.69800296e-02, 3.04984506e-02, 3.79610360e-01, 6.66813731e-01,
          2.92033311e-02, 1.23317912e-03, 4.95215238e-04, 1.18957803e-01,
          9.26592827e-01, 3.40667725e-01, 1.60216559e-02, 7.98066554e-04,
          2.93890350e-02, 2.00701877e-01, 1.09742483e-04, 7.37318333e-05,
          2.69110315e-02, 7.57792413e-01, 2.25356929e-02, 1.82887341e-03,
          9.13973153e-02, 6.06891155e-01, 3.78887504e-01, 3.27010686e-03,
          2.58238567e-03, 1.42308408e-02, 6.30169153e-01, 1.37626957e-02,
          1.78506423e-03, 2.35613286e-01, 6.30169153e-01, 4.15058166e-01,
          4.32205081e-01, 4.98928994e-01, 2.86871403e-01, 4.98928994e-01,
          1.84317771e-02, 5.30890450e-02, 2.93063130e-02, 2.27530062e-01,
          4.67261285e-01, 2.53434032e-01, 2.37076953e-01, 4.67261285e-01,
          4.67261285e-01, 4.19558352e-03, 2.09615100e-02, 3.33040282e-02,
          4.67261285e-01, 5.69210529e-01, 2.92888260e-03, 1.23447571e-02,
          1.47642389e-01, 5.69210529e-01, 4.86919377e-03, 1.54202087e-02,
          9.65994410e-03, 5.69210529e-01, 5.90772510e-01, 7.87741318e-02,
          1.45502120e-01, 1.59220025e-01, 4.05060835e-02, 1.69800296e-02,
          3.04984506e-02, 3.79610360e-01, 6.66813731e-01, 4.63851273e-01,
          8.58827010e-02, 1.83701783e-01, 4.63851273e-01, 4.63851273e-01,
          5.48967533e-02, 5.78766037e-03, 3.00940961e-01, 4.63851273e-01,
          3.82994413e-01, 1.27036311e-02, 1.19610660e-01, 5.42949736e-01,
          5.42949736e-01, 7.06201196e-02, 2.44851205e-02, 7.10663497e-02,
          4.82906818e-01, 3.78887504e-01, 3.27010686e-03, 2.58238567e-03,
          1.42308408e-02, 6.30169153e-01, 1.37626957e-02, 1.78506423e-03,
          2.35613286e-01, 6.30169153e-01, 4.98669773e-01, 4.35896497e-03,
          6.71003759e-03, 8.10993370e-03, 4.98669773e-01, 1.34698739e-02,
          4.70055640e-03, 4.98669773e-01, 4.98669773e-01, 4.92877781e-01,
          3.14827263e-03, 1.25670815e-02, 1.42912298e-01, 4.92877781e-01,
          4.97252233e-02, 1.72902476e-02, 4.92877781e-01, 4.92877781e-01,
          5.69210529e-01, 2.92888260e-03, 1.23447571e-02, 1.47642389e-01,
          5.69210529e-01, 4.86919377e-03, 1.54202087e-02, 9.65994410e-03,
          5.69210529e-01, 5.75685918e-01, 1.19734602e-03, 1.92045129e-03,
          1.36302307e-03, 5.75685918e-01, 1.07553171e-03, 6.08950446e-04,
          3.78776720e-04, 5.75685918e-01, 5.72740018e-01, 1.99431786e-03,
          1.95035916e-02, 3.20640728e-02, 5.72740018e-01, 9.20491964e-02,
          1.64609477e-02, 5.55356406e-03, 5.72740018e-01, 3.82994413e-01,
          1.27036311e-02, 1.19610660e-01, 5.42949736e-01, 5.42949736e-01,
          7.06201196e-02, 2.44851205e-02, 7.10663497e-02, 4.82906818e-01,
          3.77119690e-01, 6.24467293e-03, 6.15649112e-02, 5.91446221e-01,
          5.91446221e-01, 5.70690632e-02, 1.14428606e-02, 1.56170381e-02,
          3.80521834e-01, 4.98121709e-01, 1.95058505e-03, 3.77829745e-02,
          4.98121709e-01, 4.98121709e-01, 3.26049104e-02, 3.72728053e-03,
          3.97723680e-03, 4.98121709e-01, 4.92877781e-01, 3.14827263e-03,
          1.25670815e-02, 1.42912298e-01, 4.92877781e-01, 4.97252233e-02,
          1.72902476e-02, 4.92877781e-01, 4.92877781e-01, 4.08172905e-01,
          6.27177814e-03, 4.09109220e-02, 4.08172905e-01, 4.08172905e-01,
          2.68092334e-01, 2.98848271e-01, 4.08172905e-01, 4.08172905e-01,
          1.06804236e-03, 3.95979825e-03, 6.47077709e-02, 6.92754328e-01,
          6.92754328e-01, 1.08268194e-01, 9.96148288e-02, 7.79488683e-02,
          3.66373993e-02, 5.72740018e-01, 1.99431786e-03, 1.95035916e-02,
          3.20640728e-02, 5.72740018e-01, 9.20491964e-02, 1.64609477e-02,
          5.55356406e-03, 5.72740018e-01, 6.06802166e-01, 2.70703658e-02,
          8.13401714e-02, 2.46274360e-02, 4.96221304e-01, 5.11912704e-02,
          2.30590273e-02, 1.34186661e-02, 6.06802166e-01, 6.25547826e-01,
          1.85077831e-01, 2.28931248e-01, 7.20239058e-02, 3.35808188e-01,
          2.45079882e-02, 6.86288998e-02, 3.47220227e-02, 6.25547826e-01,
          4.98121709e-01, 1.95058505e-03, 3.77829745e-02, 4.98121709e-01,
          4.98121709e-01, 3.26049104e-02, 3.72728053e-03, 3.97723680e-03,
          4.98121709e-01, 4.98028994e-01, 2.96888407e-03, 5.15137240e-02,
          4.98028994e-01, 4.98028994e-01, 1.51637960e-02, 7.41180265e-04,
          1.18058920e-03, 4.98028994e-01, 7.01389492e-01, 4.62541245e-02,
          7.11703382e-04, 3.18270584e-04, 8.34510103e-02, 0., 0., 0.,
          7.01389492e-01, 1.06804236e-03, 3.95979825e-03, 6.47077709e-02,
          6.92754328e-01, 6.92754328e-01, 1.08268194e-01, 9.96148288e-02,
          7.79488683e-02, 3.66373993e-02, 5.36895997e-04, 1.45761678e-02,
          1.11668512e-01, 6.99838817e-01, 6.99838817e-01, 2.79769097e-02,
          4.39525356e-05, 0., 0., 0., 6.79038931e-03, 1.22034810e-01,
          6.98506773e-01, 6.98506773e-01, 4.75923195e-02, 4.21765930e-04,
          0., 0. ]
      - [ 3.98335904e-01, 6.26243651e-02, 1.97072830e-02, 3.98335904e-01,
          3.98335904e-01, 1.99202016e-01, 3.98335904e-01, 3.98335904e-01,
          3.98335904e-01, 2.63608307e-01, 2.55968552e-02, 6.12034611e-02,
          5.33270955e-01, 5.33270955e-01, 5.44974469e-02, 5.36468290e-02,
          2.76859939e-01, 5.19161582e-01, 1.87300593e-02, 1.69778895e-02,
          5.26954606e-02, 7.02685475e-01, 7.02685475e-01, 1.21365953e-02,
          1.24131674e-02, 2.58167572e-02, 3.26808803e-02, 5.70132554e-01,
          9.41869710e-03, 1.01750288e-02, 2.36147195e-02, 8.89983475e-02,
          5.02352864e-02, 8.92142206e-02, 5.70132554e-01, 5.70132554e-01,
          4.82589573e-01, 8.48645344e-03, 1.55312605e-02, 4.21327278e-02,
          3.60038668e-01, 2.79797792e-01, 8.02781656e-02, 5.22227943e-01,
          5.22227943e-01, 3.85356545e-01, 7.33515769e-02, 4.86684106e-02,
          3.85356545e-01, 3.85356545e-01, 3.12094688e-01, 3.85356545e-01,
          3.85356545e-01, 3.85356545e-01, 1.73740517e-02, 3.47181852e-03,
          1.71183646e-02, 1.22750727e-02, 6.76848352e-01, 6.76848352e-01,
          2.73148209e-01, 3.59258577e-02, 1.83656625e-02, 2.36404702e-01,
          8.14492553e-02, 2.72819065e-02, 8.58533978e-02, 6.44987166e-01,
          6.44987166e-01, 1.74621120e-01, 1.11526147e-01, 2.19035864e-01,
          3.87794077e-01, 2.90330976e-01, 8.16341788e-02, 1.58808455e-01,
          3.87794077e-01, 3.87794077e-01, 3.87794077e-01, 3.57810616e-01,
          3.87794077e-01, 1.87300593e-02, 1.69778895e-02, 5.26954606e-02,
          7.02685475e-01, 7.02685475e-01, 1.21365953e-02, 1.24131674e-02,
          2.58167572e-02, 3.26808803e-02, 3.73484846e-03, 6.03084592e-03,
          9.82871279e-03, 7.04148233e-01, 7.04148233e-01, 1.54463090e-02,
          1.22134732e-02, 2.58403067e-02, 1.09179830e-02, 2.73755938e-02,
          2.79822797e-02, 2.98184454e-02, 7.02736676e-01, 7.02736676e-01,
          2.03324184e-02, 3.11772786e-02, 2.26924326e-02, 3.13937552e-02,
          3.85356545e-01, 7.33515769e-02, 4.86684106e-02, 3.85356545e-01,
          3.85356545e-01, 3.12094688e-01, 3.85356545e-01, 3.85356545e-01,
          3.85356545e-01, 5.48698381e-02, 2.83800159e-02, 7.13723972e-02,
          6.48684144e-01, 6.48684144e-01, 1.37994230e-01, 1.66526929e-01,
          2.21480250e-01, 2.17265129e-01, 1.18485920e-01, 1.61353219e-02,
          2.43371930e-02, 6.91079795e-01, 6.91079795e-01, 8.27080160e-02,
          5.32558374e-02, 3.28091718e-02, 1.10787287e-01, 3.87794077e-01,
          2.90330976e-01, 8.16341788e-02, 1.58808455e-01, 3.87794077e-01,
          3.87794077e-01, 3.87794077e-01, 3.57810616e-01, 3.87794077e-01,
          5.66875458e-01, 5.66875458e-01, 2.85728015e-02, 6.33403584e-02,
          6.99208304e-02, 7.44888410e-02, 8.94726738e-02, 8.38130489e-02,
          5.66875458e-01, 6.52686059e-01, 3.59989434e-01, 1.51199084e-02,
          1.56643353e-02, 9.39980447e-02, 2.23957710e-02, 3.87800969e-02,
          2.40477901e-02, 6.52686059e-01, 2.73755938e-02, 2.79822797e-02,
          2.98184454e-02, 7.02736676e-01, 7.02736676e-01, 2.03324184e-02,
          3.11772786e-02, 2.26924326e-02, 3.13937552e-02, 1.21027464e-02,
          3.48272398e-02, 6.18667901e-02, 1.30278496e-02, 9.92273331e-01,
          9.22401622e-03, 3.21738259e-03, 4.25239187e-03, 5.02884388e-03,
          0., 0., 0., 0., 9.95024860e-01, 0., 0., 0., 0., 1.18485920e-01,
          1.61353219e-02, 2.43371930e-02, 6.91079795e-01, 6.91079795e-01,
          8.27080160e-02, 5.32558374e-02, 3.28091718e-02, 1.10787287e-01,
          1.47910416e-01, 3.85376648e-03, 9.42980591e-03, 8.72617587e-02,
          9.61439610e-01, 1.08118586e-01, 2.89543159e-02, 9.74250399e-03,
          1.54349402e-01, 1.46598369e-01, 0., 0., 8.34565088e-02,
          9.64840412e-01, 9.28278789e-02, 0., 0., 1.49615288e-01,
          6.52686059e-01, 3.59989434e-01, 1.51199084e-02, 1.56643353e-02,
          9.39980447e-02, 2.23957710e-02, 3.87800969e-02, 2.40477901e-02,
          6.52686059e-01, 6.98742449e-01, 2.26012804e-03, 7.43247010e-03,
          6.80698035e-03, 1.26434222e-01, 7.77164428e-03, 1.87448859e-02,
          6.21854980e-03, 6.98742449e-01, 6.99128866e-01, 0., 0.,
          6.13978412e-03, 1.23992540e-01, 6.82922173e-03, 0., 0.,
          6.99128866e-01, 0., 0., 0., 0., 9.95024860e-01, 0., 0., 0., 0.,
          0., 0., 0., 0., 9.95024860e-01, 0., 0., 0., 0., 0., 0.,
          1.42974372e-04, 3.88845921e-01, 9.16314781e-01, 4.87553049e-03,
          0., 0., 0., 1.46598369e-01, 0., 0., 8.34565088e-02,
          9.64840412e-01, 9.28278789e-02, 0., 0., 1.49615288e-01,
          1.51201159e-01, 0., 0., 9.83175635e-02, 9.64076638e-01,
          8.34852606e-02, 0., 0., 1.46426022e-01, 1.53152332e-01,
          1.65775731e-01, 3.24388593e-01, 6.43423736e-01, 6.43423736e-01,
          4.65616025e-02, 0., 0., 8.51750523e-02, 6.99128866e-01, 0., 0.,
          6.13978412e-03, 1.23992540e-01, 6.82922173e-03, 0., 0.,
          6.99128866e-01, 6.99098587e-01, 0., 0., 7.23180734e-03,
          1.24312624e-01, 6.14080951e-03, 0., 0., 6.99098587e-01,
          5.67189813e-01, 5.59340179e-01, 1.59264922e-01, 7.72999600e-02,
          8.19309205e-02, 3.59880831e-03, 0., 0., 5.67189813e-01 ]
      - [ 2.36359507e-01, 2.66063184e-01, 1.03160188e-01, 2.68533994e-02,
          5.08614421e-01, 5.42999625e-01, 5.42999625e-01, 4.70783338e-02,
          7.71795362e-02, 4.45273131e-01, 4.45273131e-01, 5.59781231e-02,
          1.72326192e-02, 4.45273131e-01, 4.45273131e-01, 2.65028942e-02,
          8.85909889e-03, 4.45273131e-01, 5.02403021e-01, 4.66308147e-02,
          3.07763517e-02, 9.94102433e-02, 3.87825042e-01, 3.22812587e-01,
          3.95439148e-01, 2.57239968e-01, 5.02403021e-01, 4.25933659e-01,
          4.25933659e-01, 4.25933659e-01, 4.16426867e-01, 6.66083843e-02,
          2.69703060e-01, 4.25933659e-01, 1.34256542e-01, 3.81407030e-02,
          5.51659048e-01, 5.51659048e-01, 5.51659048e-01, 2.02603593e-01,
          1.27665158e-02, 4.33403533e-03, 2.11719926e-02, 1.64407846e-02,
          1.98894978e-01, 2.98343390e-01, 1.80941448e-02, 9.97272134e-03,
          1.60250925e-02, 1.33248931e-02, 5.10350168e-01, 5.10350168e-01,
          5.10350168e-01, 3.51654977e-01, 1.07973665e-01, 3.35673541e-01,
          4.38645363e-01, 4.38645363e-01, 4.94626500e-02, 5.80037571e-03,
          4.19238627e-01, 4.38645363e-01, 3.40312928e-01, 2.11668406e-02,
          1.12578034e-01, 5.71581662e-01, 5.71581662e-01, 5.71581662e-01,
          9.07895062e-03, 1.04424134e-02, 1.90968756e-02, 2.23062411e-02,
          1.51532246e-02, 1.00450311e-02, 9.85976383e-02, 2.56167710e-01,
          1.27841681e-01, 1.27954245e-01, 5.96562564e-01, 5.96562564e-01,
          4.16988909e-01, 5.02403021e-01, 4.66308147e-02, 3.07763517e-02,
          9.94102433e-02, 3.87825042e-01, 3.22812587e-01, 3.95439148e-01,
          2.57239968e-01, 5.02403021e-01, 3.74708742e-01, 3.41607094e-01,
          9.08379927e-02, 3.29578668e-01, 3.74708742e-01, 2.46281013e-01,
          3.74708742e-01, 3.74708742e-01, 3.74708742e-01, 4.97521132e-01,
          4.97521132e-01, 6.49569333e-02, 2.11490914e-02, 4.97521132e-01,
          7.11693137e-04, 7.02019734e-03, 1.43301683e-02, 4.97521132e-01,
          2.98343390e-01, 1.80941448e-02, 9.97272134e-03, 1.60250925e-02,
          1.33248931e-02, 5.10350168e-01, 5.10350168e-01, 5.10350168e-01,
          3.51654977e-01, 2.85481095e-01, 4.34327513e-01, 4.34327513e-01,
          1.67463496e-01, 5.45726866e-02, 4.34327513e-01, 4.34327513e-01,
          3.22352558e-01, 1.57057762e-01, 5.61588883e-01, 5.61588883e-01,
          5.61588883e-01, 9.71082747e-02, 5.22836391e-03, 4.31711273e-03,
          1.87260453e-02, 7.32362038e-03, 1.95871189e-01, 1.51532246e-02,
          1.00450311e-02, 9.85976383e-02, 2.56167710e-01, 1.27841681e-01,
          1.27954245e-01, 5.96562564e-01, 5.96562564e-01, 4.16988909e-01,
          4.61211950e-02, 2.94692934e-01, 4.38799471e-01, 4.38799471e-01,
          7.99342394e-02, 1.00222461e-01, 4.38799471e-01, 4.38799471e-01,
          3.46456051e-01, 2.19966825e-02, 1.54483035e-01, 5.87301314e-01,
          5.87301314e-01, 5.27503669e-01, 3.68893109e-02, 1.38084255e-02,
          7.32250465e-03, 8.70145112e-03, 4.97521132e-01, 4.97521132e-01,
          6.49569333e-02, 2.11490914e-02, 4.97521132e-01, 7.11693137e-04,
          7.02019734e-03, 1.43301683e-02, 4.97521132e-01, 5.73073387e-01,
          9.49751586e-02, 1.55215687e-03, 3.93818831e-03, 5.73073387e-01,
          2.12676343e-04, 6.97137802e-05, 1.03922121e-05, 5.73073387e-01,
          5.57698488e-01, 9.46484227e-03, 2.31027231e-02, 1.32914379e-01,
          5.57698488e-01, 2.01906320e-02, 1.82580983e-03, 2.06512526e-01,
          5.57698488e-01, 5.61588883e-01, 5.61588883e-01, 5.61588883e-01,
          9.71082747e-02, 5.22836391e-03, 4.31711273e-03, 1.87260453e-02,
          7.32362038e-03, 1.95871189e-01, 6.89294934e-01, 2.03145102e-01,
          3.68704386e-02, 1.30053954e-02, 4.18961328e-03, 2.81278370e-03,
          6.28725579e-03, 1.53149536e-03, 6.89294934e-01, 6.48535013e-01,
          1.46108037e-02, 3.30132130e-03, 2.07687286e-03, 1.67976355e-03,
          2.46543866e-02, 5.02211936e-02, 3.85964274e-01, 6.48535013e-01,
          2.19966825e-02, 1.54483035e-01, 5.87301314e-01, 5.87301314e-01,
          5.27503669e-01, 3.68893109e-02, 1.38084255e-02, 7.32250465e-03,
          8.70145112e-03, 4.09465935e-03, 5.63838333e-03, 3.11703905e-02,
          6.76195204e-01, 7.30660617e-01, 2.40071155e-02, 9.34216077e-04,
          1.08666846e-03, 1.77162187e-03, 3.77369393e-03, 4.04293975e-03,
          5.73999062e-03, 5.00581563e-02, 8.25531781e-01, 5.53469837e-01,
          3.09179425e-02, 1.84859429e-02, 7.94518832e-03, 5.57698488e-01,
          9.46484227e-03, 2.31027231e-02, 1.32914379e-01, 5.57698488e-01,
          2.01906320e-02, 1.82580983e-03, 2.06512526e-01, 5.57698488e-01,
          3.40913773e-01, 2.02933755e-02, 5.64396121e-02, 4.64781106e-01,
          4.64781106e-01, 1.06194116e-01, 1.32303946e-02, 4.64781106e-01,
          4.64781106e-01, 1.82952266e-02, 4.59520258e-02, 6.37654245e-01,
          6.55295074e-01, 3.66130501e-01, 9.86349210e-03, 1.36701018e-02,
          1.08620480e-01, 9.41428468e-02, 6.48535013e-01, 1.46108037e-02,
          3.30132130e-03, 2.07687286e-03, 1.67976355e-03, 2.46543866e-02,
          5.02211936e-02, 3.85964274e-01, 6.48535013e-01, 1.22714862e-01,
          1.81859285e-02, 8.01382959e-03, 1.98642276e-02, 9.88029409e-03,
          5.32160886e-02, 5.70241928e-01, 5.70241928e-01, 5.70241928e-01,
          8.03557932e-02, 2.66461223e-01, 4.46982294e-01, 4.46982294e-01,
          1.49407938e-01, 8.04348812e-02, 4.46982294e-01, 4.46982294e-01,
          3.00185621e-01, 3.77369393e-03, 4.04293975e-03, 5.73999062e-03,
          5.00581563e-02, 8.25531781e-01, 5.53469837e-01, 3.09179425e-02,
          1.84859429e-02, 7.94518832e-03, 2.15784982e-02, 1.38319330e-02,
          1.60205550e-02, 2.09638998e-02, 5.37323952e-01, 5.61446130e-01,
          5.61446130e-01, 2.71267831e-01, 1.71378925e-02, 4.05796200e-01,
          4.05796200e-01, 4.05796200e-01, 6.59946278e-02, 1.16557948e-01,
          4.05796200e-01, 4.05796200e-01, 3.77519637e-01, 1.10141657e-01 ]
      - [ 3.92920941e-01, 3.92920941e-01, 3.92920941e-01, 9.01081339e-02,
          3.92920941e-01, 1.56226054e-01, 3.92920941e-01, 1.92943603e-01,
          3.92920941e-01, 5.39095938e-01, 4.53793257e-01, 1.99617341e-01,
          4.64449683e-03, 4.08184141e-01, 1.99648309e-02, 9.48007125e-03,
          2.16288231e-02, 5.39095938e-01, 6.30986392e-01, 2.58106329e-02,
          2.24832576e-02, 2.08346955e-02, 4.41523224e-01, 7.25146197e-03,
          2.70241592e-02, 9.00805276e-03, 6.30986392e-01, 1.47576481e-01,
          5.63236415e-01, 5.63236415e-01, 4.16506231e-02, 5.30521907e-02,
          3.78952399e-02, 4.56688225e-01, 3.27601433e-01, 1.27491549e-01,
          5.39148986e-01, 5.39148986e-01, 5.39148986e-01, 3.24025452e-02,
          4.32462199e-03, 6.43592793e-03, 8.63110274e-03, 2.57123099e-03,
          3.48395824e-01, 7.04585731e-01, 9.14902147e-03, 9.26695240e-04,
          0., 0., 0., 0., 0., 7.04585731e-01, 1.01665072e-01,
          4.05497730e-01, 4.33633476e-01, 4.33633476e-01, 8.13750103e-02,
          6.67710602e-02, 4.33633476e-01, 4.33633476e-01, 2.40149751e-01,
          1.97774209e-02, 2.17388198e-01, 5.61538994e-01, 5.61538994e-01,
          5.61538994e-01, 1.91275254e-02, 5.40591870e-03, 1.02784606e-02,
          1.62738021e-02, 0., 6.42495230e-04, 1.92748557e-03,
          4.72354144e-01, 8.76430511e-01, 1.40660314e-03, 0., 0., 0.,
          6.30986392e-01, 2.58106329e-02, 2.24832576e-02, 2.08346955e-02,
          4.41523224e-01, 7.25146197e-03, 2.70241592e-02, 9.00805276e-03,
          6.30986392e-01, 6.49328411e-01, 8.72284360e-03, 2.78867166e-02,
          3.35130915e-02, 3.82390648e-01, 2.09439788e-02, 3.16788740e-02,
          2.49146651e-02, 6.49328411e-01, 6.56752586e-01, 2.32911552e-03,
          1.48706986e-02, 3.17841545e-02, 3.51951838e-01, 6.94364160e-02,
          2.74242740e-02, 1.07265348e-02, 6.56752586e-01, 7.04585731e-01,
          9.14902147e-03, 9.26695240e-04, 0., 0., 0., 0., 0.,
          7.04585731e-01, 7.04615593e-01, 0., 0., 0., 0., 0., 0., 0.,
          7.04615593e-01, 7.04615593e-01, 0., 0., 0., 0., 0., 0., 0.,
          7.04615593e-01, 0., 6.42495230e-04, 1.92748557e-03,
          4.72354144e-01, 8.76430511e-01, 1.40660314e-03, 0., 0., 0., 0.,
          0., 0., 0., 9.95024860e-01, 0., 0., 0., 0., 0., 0., 0., 0.,
          9.95024860e-01, 0., 0., 0., 0., 6.56752586e-01, 2.32911552e-03,
          1.48706986e-02, 3.17841545e-02, 3.51951838e-01, 6.94364160e-02,
          2.74242740e-02, 1.07265348e-02, 6.56752586e-01, 6.44631803e-01,
          0., 0., 0., 4.03012872e-01, 5.22871036e-03, 3.98574444e-03,
          1.11664378e-03, 6.44631803e-01, 6.43622041e-01, 0., 0., 0.,
          4.06295031e-01, 0., 3.65396372e-05, 1.21798794e-05,
          6.43622041e-01, 7.04615593e-01, 0., 0., 0., 0., 0., 0., 0.,
          7.04615593e-01, 7.04615593e-01, 0., 0., 0., 0., 0., 0., 0.,
          7.04615593e-01, 7.04613984e-01, 0., 0., 0., 0., 0.,
          2.05855304e-03, 6.86184329e-04, 7.04613984e-01, 0., 0., 0., 0.,
          9.95024860e-01, 0., 0., 0., 0., 0., 0., 0., 4.94152075e-04,
          9.95024681e-01, 0., 0., 0., 0., 0., 0., 0., 2.10448448e-03,
          7.04611897e-01, 7.04611897e-01, 2.33710231e-03, 7.79034162e-04,
          0., 6.43622041e-01, 0., 0., 0., 4.06295031e-01, 0.,
          3.65396372e-05, 1.21798794e-05, 6.43622041e-01, 5.62151134e-01,
          7.41245644e-03, 0., 0., 3.82376224e-01, 2.02627125e-04,
          1.50966778e-01, 4.39660102e-01, 5.62151134e-01, 2.17664167e-01,
          2.72933125e-01, 4.14728969e-01, 1.14051215e-01, 4.14728969e-01,
          3.12836766e-02, 4.14728969e-01, 4.14728969e-01, 4.14728969e-01,
          7.04613984e-01, 0., 0., 0., 0., 0., 2.05855304e-03,
          6.86184329e-04, 7.04613984e-01, 3.38172376e-01, 0., 0., 0.,
          6.54559443e-03, 1.92634270e-01, 5.32711983e-01, 5.32711983e-01,
          5.24980485e-01, 2.29521133e-02, 2.34032884e-01, 5.50516546e-01,
          0., 2.91064177e-02, 1.53217793e-01, 5.50516546e-01,
          5.50516546e-01, 7.53389448e-02, 0., 0., 0., 2.10448448e-03,
          7.04611897e-01, 7.04611897e-01, 2.33710231e-03, 7.79034162e-04,
          0., 5.19381044e-03, 0., 1.49571861e-03, 3.09182033e-02,
          5.64495742e-01, 5.64495742e-01, 5.64495742e-01, 1.93224996e-01,
          8.69449787e-03, 2.90216893e-01, 4.26674694e-01, 3.91308546e-01,
          6.65239170e-02, 1.60276487e-01, 4.26674694e-01, 4.26674694e-01,
          4.14419889e-01, 1.01872168e-01 ]
      - [ 2.04951644e-01, 3.62035190e-03, 7.52861276e-02, 6.13710694e-02,
          4.79080886e-01, 1.60275713e-01, 4.79080886e-01, 4.79080886e-01,
          4.79080886e-01, 4.32142437e-01, 3.23406160e-01, 4.62341219e-01,
          1.92031506e-02, 4.62341219e-01, 1.53438849e-02, 5.00837378e-02,
          2.44238839e-01, 4.62341219e-01, 4.14615005e-01, 3.62295955e-01,
          4.14615005e-01, 4.14615005e-01, 4.14615005e-01, 8.55341367e-03,
          6.95973542e-03, 7.03572631e-02, 4.14615005e-01, 5.42633593e-01,
          1.30862894e-03, 3.76912556e-03, 7.35170383e-04, 4.20923978e-02,
          3.12575437e-02, 1.91949662e-02, 5.90136588e-01, 5.90136588e-01,
          5.06517708e-01, 4.04581204e-02, 1.01557009e-01, 9.72998329e-03,
          2.35237882e-01, 3.70011896e-01, 1.44809321e-01, 5.06517708e-01,
          5.06517708e-01, 3.23029816e-01, 1.86004728e-01, 3.89124244e-01,
          3.89124244e-01, 3.89124244e-01, 1.60407573e-01, 2.72667617e-01,
          3.89124244e-01, 3.89124244e-01, 2.72440705e-02, 1.52279045e-02,
          1.10245682e-02, 5.38473353e-02, 6.87133729e-01, 6.87133729e-01,
          2.01927602e-01, 2.49073096e-02, 5.86904436e-02, 9.22983438e-02,
          1.02946706e-01, 8.21686238e-02, 5.79239018e-02, 5.85902274e-01,
          5.85902274e-01, 2.93835014e-01, 3.19258809e-01, 3.00162524e-01,
          3.97602230e-01, 3.97602230e-01, 3.50256652e-01, 2.46917695e-01,
          3.97602230e-01, 3.04305762e-01, 2.22128093e-01, 1.95158869e-01,
          3.97602230e-01, 4.14615005e-01, 3.62295955e-01, 4.14615005e-01,
          4.14615005e-01, 4.14615005e-01, 8.55341367e-03, 6.95973542e-03,
          7.03572631e-02, 4.14615005e-01, 5.55653870e-01, 3.73683758e-02,
          4.20776606e-02, 2.52538472e-01, 5.55653870e-01, 1.46896788e-03,
          1.25003615e-02, 3.31121199e-02, 5.55653870e-01, 6.19837701e-01,
          9.46904998e-04, 2.55112816e-03, 6.97027659e-04, 4.74744797e-01,
          2.27821947e-05, 3.20004801e-05, 4.81513096e-03, 6.19837701e-01,
          3.23029816e-01, 1.86004728e-01, 3.89124244e-01, 3.89124244e-01,
          3.89124244e-01, 1.60407573e-01, 2.72667617e-01, 3.89124244e-01,
          3.89124244e-01, 5.21923542e-01, 1.15613036e-01, 1.08050190e-01,
          5.21923542e-01, 5.21923542e-01, 8.67258292e-03, 2.71912590e-02,
          2.58596893e-02, 3.88652086e-01, 4.07414049e-01, 4.07414049e-01,
          4.07414049e-01, 4.07414049e-01, 4.07414049e-01, 6.09073395e-05,
          2.68658018e-03, 2.32922332e-03, 4.07414049e-01, 3.97602230e-01,
          3.97602230e-01, 3.50256652e-01, 2.46917695e-01, 3.97602230e-01,
          3.04305762e-01, 2.22128093e-01, 1.95158869e-01, 3.97602230e-01,
          4.99064922e-01, 4.99064922e-01, 3.44292857e-02, 1.96451575e-01,
          4.99064922e-01, 1.41890422e-02, 1.47662433e-02, 1.46236280e-02,
          4.55418915e-01, 4.77893919e-01, 4.77893919e-01, 3.90240282e-01,
          2.71026075e-01, 4.77893919e-01, 1.03547536e-01, 2.86570797e-03,
          5.35603799e-03, 2.71251142e-01, 6.19837701e-01, 9.46904998e-04,
          2.55112816e-03, 6.97027659e-04, 4.74744797e-01, 2.27821947e-05,
          3.20004801e-05, 4.81513096e-03, 6.19837701e-01, 6.19950235e-01,
          2.97002308e-02, 4.96556275e-02, 2.36893888e-03, 4.70661074e-01,
          5.57467015e-03, 1.44838765e-02, 4.18735296e-03, 6.19950235e-01,
          6.27455652e-01, 3.45009044e-02, 7.99183473e-02, 1.85731426e-02,
          4.38619524e-01, 5.62858544e-02, 4.84827235e-02, 2.24972330e-02,
          6.27455652e-01, 4.07414049e-01, 4.07414049e-01, 4.07414049e-01,
          4.07414049e-01, 4.07414049e-01, 6.09073395e-05, 2.68658018e-03,
          2.32922332e-03, 4.07414049e-01, 6.94778502e-01, 5.42023554e-02,
          1.52812913e-01, 3.54608968e-02, 9.10288841e-03, 0., 0., 0.,
          6.94778502e-01, 7.04615593e-01, 0., 0., 0., 0., 0., 0., 0.,
          7.04615593e-01, 4.77893919e-01, 4.77893919e-01, 3.90240282e-01,
          2.71026075e-01, 4.77893919e-01, 1.03547536e-01, 2.86570797e-03,
          5.35603799e-03, 2.71251142e-01, 1.13575542e-02, 3.09980698e-02,
          6.93798512e-02, 1.53464489e-02, 9.86348450e-01, 1.05465315e-01,
          0., 2.68993783e-04, 3.94327706e-03, 0., 0., 0., 0.,
          9.95024860e-01, 0., 0., 0., 0., 6.27455652e-01, 3.45009044e-02,
          7.99183473e-02, 1.85731426e-02, 4.38619524e-01, 5.62858544e-02,
          4.84827235e-02, 2.24972330e-02, 6.27455652e-01, 6.34515405e-01,
          1.81217119e-02, 1.82087477e-02, 6.63757324e-03, 4.28155422e-01,
          1.78841071e-03, 4.38535772e-02, 4.99809869e-02, 6.34515405e-01,
          5.13424695e-01, 3.88332695e-01, 4.93170857e-01, 7.00011700e-02,
          2.61746466e-01, 7.59962667e-03, 6.00624422e-04, 1.31602818e-02,
          5.13424695e-01, 7.04615593e-01, 0., 0., 0., 0., 0., 0., 0.,
          7.04615593e-01, 7.04614997e-01, 0., 0., 0., 0., 0.,
          4.58255468e-04, 1.26969442e-03, 7.04614997e-01, 6.97860718e-01,
          1.36039853e-01, 1.70344878e-02, 0., 3.80613818e-03, 0.,
          2.86068884e-03, 1.39530217e-02, 6.97860718e-01, 0., 0., 0., 0.,
          9.95024860e-01, 0., 0., 0., 0., 0., 0., 0., 9.05117579e-03,
          9.94983852e-01, 0., 0., 0., 0., 1.97072877e-04, 0.,
          2.82028783e-02, 3.44193995e-01, 9.33492124e-01, 3.79192038e-03,
          0., 0., 1.97072877e-04 ]
      - [ 1.28290638e-01, 1.74249515e-01, 1.79722667e-01, 1.10279493e-01,
          4.92867738e-01, 5.54043591e-01, 5.54043591e-01, 2.07902923e-01,
          5.57975136e-02, 4.20101732e-01, 4.20101732e-01, 4.20101732e-01,
          9.04920995e-02, 4.20101732e-01, 3.17588210e-01, 6.29846901e-02,
          1.89179834e-02, 4.20101732e-01, 5.02607524e-01, 5.02607524e-01,
          5.02607524e-01, 2.16095239e-01, 2.35200271e-01, 1.05495835e-02,
          9.26333014e-03, 1.73271969e-02, 3.66911024e-01, 3.95315796e-01,
          3.95315796e-01, 3.95315796e-01, 2.94595778e-01, 1.08305007e-01,
          3.21831554e-01, 3.95315796e-01, 3.95315796e-01, 1.12185560e-01,
          5.30932188e-01, 5.30932188e-01, 5.30932188e-01, 3.62322897e-01,
          8.06703120e-02, 5.16199972e-03, 6.37156749e-03, 7.22825108e-03,
          1.05477855e-01, 4.95249808e-01, 4.95249808e-01, 4.20785695e-01,
          9.89600644e-02, 1.61390439e-01, 1.09144330e-01, 1.42266870e-01,
          1.19094931e-01, 4.95249808e-01, 1.58781305e-01, 1.38694987e-01,
          4.32871819e-01, 4.32871819e-01, 1.14903279e-01, 3.36927921e-02,
          4.32871819e-01, 4.32871819e-01, 4.32871819e-01, 5.75876646e-02,
          1.14833534e-01, 5.67183793e-01, 5.67183793e-01, 5.67183793e-01,
          5.66219650e-02, 6.86200857e-02, 6.19833767e-02, 3.13690826e-02,
          1.38989845e-02, 1.10253915e-02, 7.18048736e-02, 5.67977250e-01,
          5.67977250e-01, 5.67977250e-01, 1.44391716e-01, 1.30107673e-02,
          6.69604586e-03, 5.02607524e-01, 5.02607524e-01, 5.02607524e-01,
          2.16095239e-01, 2.35200271e-01, 1.05495835e-02, 9.26333014e-03,
          1.73271969e-02, 3.66911024e-01, 7.39133805e-02, 1.53559238e-01,
          2.27311432e-01, 4.83976156e-02, 5.46194673e-01, 5.46194673e-01,
          5.46194673e-01, 1.22315541e-01, 3.92728671e-02, 3.42556238e-02,
          5.82122467e-02, 3.23344529e-01, 5.64859271e-01, 7.09833860e-01,
          2.27811635e-01, 8.83074626e-02, 1.82417929e-02, 2.90064793e-02,
          4.95249808e-01, 4.95249808e-01, 4.20785695e-01, 9.89600644e-02,
          1.61390439e-01, 1.09144330e-01, 1.42266870e-01, 1.19094931e-01,
          4.95249808e-01, 2.79944390e-03, 6.36206847e-03, 7.71680567e-03,
          6.38662698e-03, 4.98674601e-01, 4.98674601e-01, 4.98674601e-01,
          4.98674601e-01, 1.28618022e-02, 2.25174539e-02, 1.23853303e-01,
          4.80987281e-01, 4.80987281e-01, 4.80987281e-01, 1.65141806e-01,
          4.80987281e-01, 1.62111208e-01, 2.00612191e-02, 1.38989845e-02,
          1.10253915e-02, 7.18048736e-02, 5.67977250e-01, 5.67977250e-01,
          5.67977250e-01, 1.44391716e-01, 1.30107673e-02, 6.69604586e-03,
          7.02379942e-02, 4.22516912e-02, 4.02763709e-02, 3.44991125e-02,
          5.64496517e-01, 5.64496517e-01, 5.64496517e-01, 1.52491540e-01,
          7.48955309e-02, 3.34359378e-01, 3.98463279e-01, 3.98463279e-01,
          3.98463279e-01, 3.09995860e-01, 2.63858885e-01, 3.98463279e-01,
          1.80564582e-01, 2.25407556e-01, 3.42556238e-02, 5.82122467e-02,
          3.23344529e-01, 5.64859271e-01, 7.09833860e-01, 2.27811635e-01,
          8.83074626e-02, 1.82417929e-02, 2.90064793e-02, 1.15261368e-01,
          4.17607576e-02, 1.98137522e-01, 1.28837898e-01, 2.68744290e-01,
          1.48696512e-01, 5.62386751e-01, 5.62386751e-01, 4.43402022e-01,
          4.37945992e-01, 1.01864198e-02, 8.88349116e-03, 4.31301855e-02,
          4.37945992e-01, 1.86008066e-01, 4.37945992e-01, 4.37945992e-01,
          4.37945992e-01, 2.25174539e-02, 1.23853303e-01, 4.80987281e-01,
          4.80987281e-01, 4.80987281e-01, 1.65141806e-01, 4.80987281e-01,
          1.62111208e-01, 2.00612191e-02, 2.30155308e-02, 3.20400059e-01,
          5.95062435e-01, 5.95062435e-01, 4.22680974e-01, 3.85470456e-03,
          2.28004809e-02, 3.40882018e-02, 4.81431112e-02, 5.10645568e-01,
          2.13998556e-02, 2.20042598e-02, 2.47137379e-02, 2.33723130e-02,
          2.66788602e-02, 2.11251348e-01, 5.85642934e-01, 5.85642934e-01,
          3.34359378e-01, 3.98463279e-01, 3.98463279e-01, 3.98463279e-01,
          3.09995860e-01, 2.63858885e-01, 3.98463279e-01, 1.80564582e-01,
          2.25407556e-01, 1.61218662e-02, 3.07293624e-01, 5.46105504e-01,
          5.46105504e-01, 5.46105504e-01, 6.36018962e-02, 2.66713481e-02,
          1.01454351e-02, 1.74347926e-02, 6.12486620e-03, 1.98995788e-02,
          2.45963503e-02, 1.99432105e-01, 8.85041237e-01, 3.98279786e-01,
          8.62468854e-02, 2.96084285e-02, 1.08419992e-02, 4.37945992e-01,
          1.01864198e-02, 8.88349116e-03, 4.31301855e-02, 4.37945992e-01,
          1.86008066e-01, 4.37945992e-01, 4.37945992e-01, 4.37945992e-01,
          3.35258156e-01, 8.01552236e-02, 2.11892828e-01, 4.46211904e-01,
          4.46211904e-01, 4.47987206e-02, 1.82740897e-01, 4.46211904e-01,
          4.46211904e-01, 3.49205695e-02, 6.38731867e-02, 6.03826165e-01,
          6.03826165e-01, 5.00321686e-01, 4.38945405e-02, 3.83802988e-02,
          6.40880540e-02, 4.03827541e-02, 5.10645568e-01, 2.13998556e-02,
          2.20042598e-02, 2.47137379e-02, 2.33723130e-02, 2.66788602e-02,
          2.11251348e-01, 5.85642934e-01, 5.85642934e-01, 9.55523774e-02,
          1.23051163e-02, 9.73076001e-03, 2.39201151e-02, 5.36984690e-02,
          3.74639705e-02, 5.71564198e-01, 5.71564198e-01, 5.71564198e-01,
          1.71988532e-01, 4.19240594e-01, 4.49514300e-01, 4.49514300e-01,
          2.16666996e-01, 9.13464651e-02, 4.49514300e-01, 3.26482177e-01,
          1.48655847e-01, 6.12486620e-03, 1.98995788e-02, 2.45963503e-02,
          1.99432105e-01, 8.85041237e-01, 3.98279786e-01, 8.62468854e-02,
          2.96084285e-02, 1.08419992e-02, 5.85489348e-02, 8.51543248e-02,
          7.26297498e-02, 6.06784550e-03, 5.08097053e-01, 5.08097053e-01,
          5.08097053e-01, 4.51586664e-01, 2.27189697e-02, 4.97731119e-01,
          4.97731119e-01, 4.97731119e-01, 3.76689658e-02, 4.11758758e-02,
          1.71564311e-01, 4.42064404e-01, 1.38274908e-01, 6.87789321e-02 ]
      - [ 3.18403184e-01, 3.62006068e-01, 3.29784572e-01, 1.83330730e-01,
          3.62006068e-01, 3.62006068e-01, 3.62006068e-01, 3.62006068e-01,
          3.12078208e-01, 4.38109487e-01, 4.38109487e-01, 4.38109487e-01,
          1.29818246e-01, 4.38109487e-01, 8.12200084e-02, 1.11379884e-01,
          8.31539184e-03, 4.38109487e-01, 5.40534139e-01, 5.40534139e-01,
          5.40534139e-01, 2.14929581e-01, 2.35311061e-01, 1.35562345e-02,
          3.14572752e-02, 1.94090717e-02, 1.22288518e-01, 3.75534832e-01,
          4.52007353e-01, 4.52007353e-01, 3.90536994e-01, 3.68228219e-02,
          1.47556126e-01, 4.52007353e-01, 2.38508970e-01, 9.48283896e-02,
          4.73423570e-01, 4.73423570e-01, 4.73423570e-01, 3.04182440e-01,
          6.92559332e-02, 2.25397740e-02, 2.77057588e-02, 1.23642599e-02,
          4.73423570e-01, 4.12814051e-01, 3.42075825e-01, 1.30690217e-01,
          7.62077272e-02, 5.55042684e-01, 5.55042684e-01, 1.69290304e-01,
          4.83604483e-02, 1.92342833e-01, 4.53173406e-02, 4.06955719e-01,
          4.06955719e-01, 4.06955719e-01, 4.06955719e-01, 2.27045625e-01,
          4.06955719e-01, 3.27020943e-01, 8.55783075e-02, 2.08703168e-02,
          1.40121669e-01, 5.10812879e-01, 4.97993529e-01, 5.10812879e-01,
          4.48857814e-01, 4.38771248e-02, 2.40017474e-02, 3.15757506e-02,
          5.49213827e-01, 2.13219598e-01, 9.88609623e-03, 5.72463013e-02,
          5.49213827e-01, 5.49213827e-01, 1.63516700e-01, 7.83853512e-03,
          1.18200302e-01, 5.40534139e-01, 5.40534139e-01, 5.40534139e-01,
          2.14929581e-01, 2.35311061e-01, 1.35562345e-02, 3.14572752e-02,
          1.94090717e-02, 1.22288518e-01, 1.25646681e-01, 2.48924792e-01,
          5.56909442e-01, 4.75716919e-01, 5.53094149e-01, 2.08398569e-02,
          1.72225252e-01, 1.85310647e-01, 8.47881287e-02, 2.25498360e-02,
          2.73756031e-02, 2.28093322e-02, 5.13644367e-02, 6.69563115e-01,
          6.69563115e-01, 2.75572389e-01, 1.19453833e-01, 4.53904681e-02,
          4.12814051e-01, 3.42075825e-01, 1.30690217e-01, 7.62077272e-02,
          5.55042684e-01, 5.55042684e-01, 1.69290304e-01, 4.83604483e-02,
          1.92342833e-01, 1.26579655e-02, 1.28816189e-02, 1.12434104e-02,
          5.47771901e-02, 6.95255399e-01, 6.95255399e-01, 1.49719104e-01,
          1.87473632e-02, 8.88729468e-03, 2.28492275e-01, 1.16348617e-01,
          2.63237823e-02, 3.74541916e-02, 6.69551432e-01, 6.69551432e-01,
          1.45436600e-01, 3.97219695e-02, 7.83999711e-02, 5.49213827e-01,
          2.13219598e-01, 9.88609623e-03, 5.72463013e-02, 5.49213827e-01,
          5.49213827e-01, 1.63516700e-01, 7.83853512e-03, 1.18200302e-01,
          4.41648334e-01, 4.41648334e-01, 5.41828398e-04, 6.59206957e-02,
          4.41648334e-01, 4.41648334e-01, 1.25711739e-01, 1.31466612e-02,
          4.41648334e-01, 5.14015794e-01, 5.14015794e-01, 1.16487797e-02,
          1.67479981e-02, 2.45702550e-01, 3.75174284e-01, 2.38246359e-02,
          1.09787211e-02, 5.14015794e-01, 2.25498360e-02, 2.73756031e-02,
          2.28093322e-02, 5.13644367e-02, 6.69563115e-01, 6.69563115e-01,
          2.75572389e-01, 1.19453833e-01, 4.53904681e-02, 2.47432757e-02,
          1.87728573e-02, 1.61879063e-02, 5.88254891e-02, 6.94121540e-01,
          6.94121540e-01, 1.55534610e-01, 1.92361716e-02, 1.46059105e-02,
          5.28577641e-02, 3.30378488e-02, 1.53189553e-02, 9.35448855e-02,
          6.69904470e-01, 6.69904470e-01, 2.81522989e-01, 3.27495560e-02,
          5.06933220e-02, 2.28492275e-01, 1.16348617e-01, 2.63237823e-02,
          3.74541916e-02, 6.69551432e-01, 6.69551432e-01, 1.45436600e-01,
          3.97219695e-02, 7.83999711e-02, 4.45381165e-01, 4.45381165e-01,
          2.91070417e-02, 1.49189964e-01, 4.45381165e-01, 4.45381165e-01,
          1.36437967e-01, 7.26961419e-02, 3.93813223e-01, 4.44954157e-01,
          4.44954157e-01, 1.96015909e-02, 3.95136550e-02, 4.44954157e-01,
          4.44954157e-01, 5.40861562e-02, 2.76338607e-02, 4.44954157e-01,
          5.14015794e-01, 5.14015794e-01, 1.16487797e-02, 1.67479981e-02,
          2.45702550e-01, 3.75174284e-01, 2.38246359e-02, 1.09787211e-02,
          5.14015794e-01, 5.74038446e-01, 5.74038446e-01, 6.97650947e-03,
          3.36898901e-02, 4.83842790e-02, 2.87777204e-02, 7.44422572e-03,
          3.60423736e-02, 5.74038446e-01, 5.75075328e-01, 5.75075328e-01,
          5.59662608e-03, 1.76616423e-02, 5.88814355e-03, 1.52606489e-02,
          2.70053819e-02, 2.79783662e-02, 5.75075328e-01, 5.28577641e-02,
          3.30378488e-02, 1.53189553e-02, 9.35448855e-02, 6.69904470e-01,
          6.69904470e-01, 2.81522989e-01, 3.27495560e-02, 5.06933220e-02,
          4.63374704e-01, 3.20839822e-01, 2.25404035e-02, 1.21478073e-01,
          5.26736617e-01, 5.26736617e-01, 1.64265469e-01, 4.38779406e-02,
          2.79301077e-01, 4.70849842e-01, 4.70849842e-01, 1.77074388e-01,
          4.81164455e-02, 4.70849842e-01, 4.70849842e-01, 5.89575544e-02,
          3.19478684e-03, 2.67099202e-01, 4.44954157e-01, 4.44954157e-01,
          1.96015909e-02, 3.95136550e-02, 4.44954157e-01, 4.44954157e-01,
          5.40861562e-02, 2.76338607e-02, 4.44954157e-01, 5.69902122e-01,
          5.69902122e-01, 2.16989964e-02, 3.62677611e-02, 1.00122347e-01,
          8.62317681e-02, 1.84300337e-02, 1.89120993e-02, 5.69902122e-01,
          5.75281560e-01, 5.75281560e-01, 2.69138440e-02, 1.25654079e-02,
          2.24806741e-02, 1.73645630e-03, 4.15349612e-03, 8.53575417e-04,
          5.75281560e-01, 5.75075328e-01, 5.75075328e-01, 5.59662608e-03,
          1.76616423e-02, 5.88814355e-03, 1.52606489e-02, 2.70053819e-02,
          2.79783662e-02, 5.75075328e-01, 5.65257192e-01, 5.38367569e-01,
          7.35462457e-02, 2.21396424e-02, 7.88702518e-02, 2.00235724e-01,
          1.11083463e-01, 3.05098575e-02, 5.65257192e-01, 6.16509736e-01,
          2.78835893e-01, 6.00547969e-01, 2.69599289e-01, 1.20901167e-01,
          7.89647102e-02, 6.00775145e-02, 5.30529879e-02, 2.69599378e-01 ]
      - [ 1.07170008e-01, 1.40264913e-01, 7.10787177e-02, 1.36669157e-02,
          3.81797254e-01, 6.30676985e-01, 6.30676985e-01, 1.25253275e-01,
          1.84408221e-02, 4.47124690e-01, 4.47124690e-01, 1.04586348e-01,
          4.54525985e-02, 4.47124690e-01, 4.47124690e-01, 7.02412650e-02,
          7.75447348e-03, 4.21726912e-01, 5.47021806e-01, 3.06517124e-01,
          2.21235603e-02, 2.00932845e-02, 5.47021806e-01, 4.16191034e-02,
          2.99196620e-03, 1.58674344e-02, 5.47021806e-01, 1.55028567e-01,
          4.40709203e-01, 4.40709203e-01, 9.21730418e-03, 1.09381959e-01,
          4.40709203e-01, 4.40709203e-01, 3.95946950e-01, 1.60754666e-01,
          5.64409435e-01, 5.64409435e-01, 5.64409435e-01, 7.80467922e-03,
          1.79521423e-02, 2.83804256e-02, 1.75184887e-02, 4.88790451e-03,
          1.92795977e-01, 5.85786521e-01, 5.46609640e-01, 3.23220044e-02,
          2.60496344e-02, 2.70095617e-02, 2.69564930e-02, 4.76190113e-02,
          6.02507703e-02, 5.85786521e-01, 5.58207817e-02, 2.89719343e-01,
          4.46275145e-01, 2.96712399e-01, 1.00031905e-01, 1.17466435e-01,
          4.46275145e-01, 4.46275145e-01, 4.46275145e-01, 1.97883807e-02,
          4.16017354e-01, 5.21471202e-01, 5.21471202e-01, 5.21471202e-01,
          5.07435203e-02, 1.87474918e-02, 3.52601893e-02, 3.69298868e-02,
          9.66514926e-03, 1.14177121e-02, 1.32019967e-01, 6.96797431e-01,
          6.96797431e-01, 5.24752811e-02, 2.33124755e-02, 2.75492538e-02,
          1.67858154e-02, 5.47021806e-01, 3.06517124e-01, 2.21235603e-02,
          2.00932845e-02, 5.47021806e-01, 4.16191034e-02, 2.99196620e-03,
          1.58674344e-02, 5.47021806e-01, 5.74001968e-01, 1.69971250e-02,
          1.10519966e-02, 3.67530771e-02, 5.74001968e-01, 5.44153601e-02,
          3.12224887e-02, 1.16584385e-02, 5.74001968e-01, 5.74784815e-01,
          4.31292364e-03, 1.29773850e-02, 2.09467541e-02, 5.74784815e-01,
          4.23820838e-02, 2.51197852e-02, 8.63422919e-03, 5.74784815e-01,
          5.85786521e-01, 5.46609640e-01, 3.23220044e-02, 2.60496344e-02,
          2.70095617e-02, 2.69564930e-02, 4.76190113e-02, 6.02507703e-02,
          5.85786521e-01, 6.92932546e-01, 5.47178835e-02, 1.01439461e-01,
          8.04556012e-02, 8.76346231e-02, 3.04743536e-02, 2.54694112e-02,
          6.12963997e-02, 6.92932546e-01, 7.04297006e-01, 1.05715506e-02,
          2.42993496e-02, 1.31574832e-02, 3.82181723e-03, 2.17089849e-03,
          2.10349075e-03, 1.37488486e-03, 7.04297006e-01, 9.66514926e-03,
          1.14177121e-02, 1.32019967e-01, 6.96797431e-01, 6.96797431e-01,
          5.24752811e-02, 2.33124755e-02, 2.75492538e-02, 1.67858154e-02,
          6.09708764e-02, 2.67598052e-02, 7.03672767e-02, 9.47857648e-02,
          9.83212471e-01, 4.07897830e-02, 3.29539478e-02, 3.81493717e-02,
          3.01777627e-02, 4.04848764e-03, 9.94534232e-03, 1.87287126e-02,
          1.59308370e-02, 9.94648397e-01, 5.32694254e-03, 1.10385253e-03,
          5.13332372e-04, 1.79987145e-03, 5.74784815e-01, 4.31292364e-03,
          1.29773850e-02, 2.09467541e-02, 5.74784815e-01, 4.23820838e-02,
          2.51197852e-02, 8.63422919e-03, 5.74784815e-01, 5.75407088e-01,
          2.76216003e-03, 1.19236056e-02, 2.56959274e-02, 5.75407088e-01,
          1.17308469e-02, 4.89737233e-03, 1.63245760e-03, 5.75407088e-01,
          5.60544789e-01, 1.84221081e-02, 2.62078140e-02, 9.18366462e-02,
          5.60544789e-01, 5.03078550e-02, 4.70249578e-02, 1.93826646e-01,
          5.60544789e-01, 7.04297006e-01, 1.05715506e-02, 2.42993496e-02,
          1.31574832e-02, 3.82181723e-03, 2.17089849e-03, 2.10349075e-03,
          1.37488486e-03, 7.04297006e-01, 7.04508007e-01, 7.76374829e-04,
          0., 0., 0., 4.00678441e-03, 1.62098855e-02, 4.99337725e-03,
          7.04508007e-01, 5.94042957e-01, 2.79743765e-02, 3.64376493e-02,
          1.07679339e-02, 4.99022305e-02, 7.62212723e-02, 1.39232069e-01,
          5.08313477e-01, 5.94042957e-01, 4.04848764e-03, 9.94534232e-03,
          1.87287126e-02, 1.59308370e-02, 9.94648397e-01, 5.32694254e-03,
          1.10385253e-03, 5.13332372e-04, 1.79987145e-03, 0., 0., 0.,
          2.32391036e-03, 9.94967937e-01, 4.78131929e-03, 7.85861071e-03,
          4.27462254e-03, 2.32743099e-03, 1.50363632e-02, 1.37269832e-02,
          4.91621671e-03, 6.41689403e-03, 6.91305876e-01, 6.91305876e-01,
          1.88599452e-01, 2.42542680e-02, 2.55611297e-02, 5.60544789e-01,
          1.84221081e-02, 2.62078140e-02, 9.18366462e-02, 5.60544789e-01,
          5.03078550e-02, 4.70249578e-02, 1.93826646e-01, 5.60544789e-01,
          3.68589967e-01, 3.68534364e-02, 6.62895292e-02, 4.57101345e-01,
          4.57101345e-01, 5.67283072e-02, 1.21813133e-01, 4.57101345e-01,
          4.57101345e-01, 1.01420611e-01, 2.27255225e-02, 6.43613636e-01,
          6.43613636e-01, 3.64548773e-01, 1.93384048e-02, 4.54994850e-02,
          9.85172838e-02, 9.61720943e-02, 5.94042957e-01, 2.79743765e-02,
          3.64376493e-02, 1.07679339e-02, 4.99022305e-02, 7.62212723e-02,
          1.39232069e-01, 5.08313477e-01, 5.94042957e-01, 9.34918895e-02,
          8.75828601e-03, 1.32103181e-02, 1.14924768e-02, 4.50868998e-03,
          5.59320934e-02, 5.72134674e-01, 5.72134674e-01, 5.72134674e-01,
          9.24312919e-02, 3.28323036e-01, 4.38649863e-01, 4.38649863e-01,
          1.15342602e-01, 1.09419674e-01, 4.38649863e-01, 4.38649863e-01,
          2.90426254e-01, 1.50363632e-02, 1.37269832e-02, 4.91621671e-03,
          6.41689403e-03, 6.91305876e-01, 6.91305876e-01, 1.88599452e-01,
          2.42542680e-02, 2.55611297e-02, 1.43658174e-02, 1.38082644e-02,
          6.73646946e-03, 1.31307431e-02, 5.66054523e-01, 5.66054523e-01,
          5.66054523e-01, 1.78682670e-01, 2.34965980e-02, 4.29175347e-01,
          4.29175347e-01, 4.29175347e-01, 1.61946137e-02, 1.12306304e-01,
          4.29175347e-01, 4.29175347e-01, 2.40790993e-01, 6.24533109e-02 ]
      - [ 2.49859435e-03, 1.29296370e-02, 6.79084752e-03, 1.07450215e-02,
          7.04455137e-01, 7.04455137e-01, 1.06301112e-02, 1.35743723e-03,
          1.96752930e-03, 2.18735565e-03, 2.59082788e-03, 1.43150073e-02,
          4.96224388e-02, 7.03640521e-01, 7.03640521e-01, 7.16589205e-03,
          4.77431295e-03, 1.75288587e-03, 6.28113328e-03, 7.36932922e-03,
          1.69199910e-02, 3.66645902e-02, 7.03938127e-01, 7.03938127e-01,
          3.50622553e-03, 7.57290237e-03, 1.10109253e-02, 6.21692277e-02,
          3.17203701e-02, 3.56522575e-02, 1.58160310e-02, 6.49307668e-01,
          6.49307668e-01, 3.65061849e-01, 8.74085203e-02, 5.48976287e-02,
          1.83528528e-01, 2.75278568e-01, 3.80792111e-01, 2.92188942e-01,
          5.64291358e-01, 5.64291358e-01, 5.96450120e-02, 6.43498749e-02,
          9.98963639e-02, 4.31966513e-01, 4.31966513e-01, 1.90034494e-01,
          2.94912905e-01, 4.31966513e-01, 3.53516668e-01, 1.62980445e-02,
          3.12774479e-02, 4.31966513e-01, 5.75192809e-01, 2.00690269e-01,
          3.60531397e-02, 1.53248222e-03, 8.79440457e-02, 1.98621433e-02,
          3.29955369e-01, 4.17114913e-01, 5.75192809e-01, 4.75930423e-01,
          3.91755998e-01, 3.56893092e-01, 2.15037927e-01, 2.59018183e-01,
          9.70822349e-02, 9.87192616e-02, 3.58997524e-01, 4.75930423e-01,
          4.50760990e-01, 2.55528092e-01, 3.03945690e-01, 4.50760990e-01,
          4.50760990e-01, 1.03093587e-01, 4.84600887e-02, 1.10006705e-01,
          4.50760990e-01, 6.28113328e-03, 7.36932922e-03, 1.69199910e-02,
          3.66645902e-02, 7.03938127e-01, 7.03938127e-01, 3.50622553e-03,
          7.57290237e-03, 1.10109253e-02, 5.60106412e-02, 3.77729605e-03,
          3.84086370e-02, 6.04169741e-02, 6.99133277e-01, 6.99133277e-01,
          7.15771914e-02, 1.97537616e-02, 4.06927317e-02, 3.54341835e-01,
          2.35739350e-02, 3.08841188e-03, 3.01451311e-02, 6.41497731e-01,
          6.41497731e-01, 5.78629896e-02, 3.16800848e-02, 1.97921127e-01,
          4.31966513e-01, 4.31966513e-01, 1.90034494e-01, 2.94912905e-01,
          4.31966513e-01, 3.53516668e-01, 1.62980445e-02, 3.12774479e-02,
          4.31966513e-01, 5.05603850e-01, 4.45639044e-01, 3.05298679e-02,
          6.68266118e-02, 5.05603850e-01, 1.52056426e-01, 2.75301710e-02,
          1.31727224e-02, 5.05603850e-01, 6.38130128e-01, 3.61526281e-01,
          3.66266514e-03, 7.06784613e-03, 2.11282074e-01, 4.92903739e-02,
          2.99471896e-02, 2.18589585e-02, 6.38130128e-01, 4.50760990e-01,
          2.55528092e-01, 3.03945690e-01, 4.50760990e-01, 4.50760990e-01,
          1.03093587e-01, 4.84600887e-02, 1.10006705e-01, 4.50760990e-01,
          4.06879216e-01, 5.11533469e-02, 5.04826009e-02, 5.90093195e-01,
          5.90093195e-01, 5.89879602e-02, 2.19573583e-02, 3.35735194e-02,
          3.49117786e-01, 1.17489032e-01, 4.41646688e-02, 2.65809093e-02,
          6.91204727e-01, 6.91204727e-01, 5.94798811e-02, 3.58995385e-02,
          1.82628278e-02, 1.26297787e-01, 3.54341835e-01, 2.35739350e-02,
          3.08841188e-03, 3.01451311e-02, 6.41497731e-01, 6.41497731e-01,
          5.78629896e-02, 3.16800848e-02, 1.97921127e-01, 3.68641675e-01,
          2.20820922e-02, 1.49737634e-02, 7.10786954e-02, 5.85353613e-01,
          5.85353613e-01, 1.71413515e-02, 6.62776604e-02, 4.03150171e-01,
          3.11721325e-01, 4.67917502e-01, 2.80139655e-01, 1.03570521e-01,
          5.31429887e-01, 5.31429887e-01, 3.72140780e-02, 7.03214779e-02,
          1.34926721e-01, 6.38130128e-01, 3.61526281e-01, 3.66266514e-03,
          7.06784613e-03, 2.11282074e-01, 4.92903739e-02, 2.99471896e-02,
          2.18589585e-02, 6.38130128e-01, 4.95678574e-01, 1.02185138e-01,
          7.82627054e-03, 1.82033633e-03, 3.91117223e-02, 1.49792293e-02,
          4.95678574e-01, 4.95678574e-01, 4.95678574e-01, 2.31979296e-01,
          4.71922070e-01, 4.71922070e-01, 6.17303029e-02, 8.49598050e-02,
          1.38739329e-02, 4.71922070e-01, 4.71922070e-01, 1.98516786e-01,
          1.17489032e-01, 4.41646688e-02, 2.65809093e-02, 6.91204727e-01,
          6.91204727e-01, 5.94798811e-02, 3.58995385e-02, 1.82628278e-02,
          1.26297787e-01, 2.83629168e-02, 2.67576464e-02, 1.55901005e-02,
          4.03561831e-01, 4.92687792e-01, 4.92687792e-01, 4.92687792e-01,
          3.19189727e-01, 1.86439268e-02, 4.47082147e-02, 4.01710242e-01,
          4.01710242e-01, 4.01710242e-01, 2.11757943e-01, 4.01710242e-01,
          4.01710242e-01, 3.68425608e-01, 8.09557661e-02, 3.11721325e-01,
          4.67917502e-01, 2.80139655e-01, 1.03570521e-01, 5.31429887e-01,
          5.31429887e-01, 3.72140780e-02, 7.03214779e-02, 1.34926721e-01,
          4.41697031e-01, 4.41697031e-01, 1.03034824e-01, 5.20131215e-02,
          4.41697031e-01, 4.41194803e-01, 4.33931798e-02, 7.31128082e-02,
          4.41697031e-01, 5.26383102e-01, 5.26383102e-01, 1.65409282e-01,
          1.21633291e-01, 3.05780649e-01, 1.50518626e-01, 6.14727102e-02,
          3.76070775e-02, 5.26383102e-01, 2.31979296e-01, 4.71922070e-01,
          4.71922070e-01, 6.17303029e-02, 8.49598050e-02, 1.38739329e-02,
          4.71922070e-01, 4.71922070e-01, 1.98516786e-01, 4.98322785e-01,
          4.98322785e-01, 4.98322785e-01, 3.75324860e-02, 9.31804068e-03,
          2.36125570e-03, 8.90615117e-03, 1.18389539e-02, 4.98322785e-01,
          5.91634214e-01, 5.42162418e-01, 2.77385185e-03, 0.,
          7.07830768e-04, 1.78903085e-03, 3.18039116e-03, 8.29368364e-03,
          5.91634214e-01, 4.47082147e-02, 4.01710242e-01, 4.01710242e-01,
          4.01710242e-01, 2.11757943e-01, 4.01710242e-01, 4.01710242e-01,
          3.68425608e-01, 8.09557661e-02, 5.25191613e-03, 3.31729770e-01,
          5.42940915e-01, 5.42940915e-01, 5.42940915e-01, 1.10147032e-03,
          6.19865814e-03, 4.49611619e-03, 9.55884065e-03, 0.,
          5.58010116e-03, 1.31937832e-01, 6.98422968e-01, 6.98422968e-01,
          0., 0., 0., 0. ]
      - [ 1.28445655e-01, 1.92868412e-01, 5.48537932e-02, 9.59017873e-02,
          5.64789355e-01, 5.64789355e-01, 5.36820292e-01, 4.55957502e-02,
          1.51138967e-02, 4.38374996e-01, 4.38374996e-01, 8.82640108e-02,
          1.12996012e-01, 4.38374996e-01, 4.38374996e-01, 7.92994574e-02,
          8.89429376e-02, 4.38374996e-01, 4.44905102e-01, 6.44907579e-02,
          6.53269216e-02, 4.44905102e-01, 4.44905102e-01, 1.82081550e-01,
          7.61168078e-02, 3.95499200e-01, 4.44905102e-01, 4.02513474e-01,
          4.44544762e-01, 4.44544762e-01, 1.36911482e-01, 1.87711582e-01,
          2.95772702e-01, 4.44544762e-01, 3.00287336e-01, 9.51215699e-02,
          5.12467146e-01, 5.12467146e-01, 5.12467146e-01, 1.35203674e-01,
          1.96503177e-02, 3.20597622e-03, 1.01009551e-02, 6.16688747e-03,
          4.33817476e-01, 4.94422108e-01, 2.18466446e-02, 2.95142457e-03,
          9.69030615e-03, 1.85849499e-02, 1.27764449e-01, 4.94422108e-01,
          4.94422108e-01, 4.94422108e-01, 9.21658650e-02, 2.78698534e-01,
          4.18091863e-01, 4.18091863e-01, 1.87446579e-01, 2.27124318e-02,
          4.18091863e-01, 4.18091863e-01, 4.18091863e-01, 2.87855864e-02,
          1.29775122e-01, 4.97265220e-01, 6.02907062e-01, 6.02907062e-01,
          2.82894243e-02, 1.17829051e-02, 7.19015207e-03, 3.24437693e-02,
          1.09758703e-02, 1.17646325e-02, 1.05448142e-02, 1.34588271e-01,
          6.06321275e-01, 6.06321275e-01, 4.76792663e-01, 1.07881382e-01,
          3.52330506e-02, 4.44905102e-01, 6.44907579e-02, 6.53269216e-02,
          4.44905102e-01, 4.44905102e-01, 1.82081550e-01, 7.61168078e-02,
          3.95499200e-01, 4.44905102e-01, 7.42037892e-02, 5.31288981e-02,
          1.03758104e-01, 5.22220969e-01, 5.22220969e-01, 5.22220969e-01,
          1.28998175e-01, 2.65210956e-01, 2.65647352e-01, 4.49142933e-01,
          4.49142933e-01, 2.57379979e-01, 1.12365887e-01, 4.49142933e-01,
          4.49142933e-01, 8.11389163e-02, 7.04466179e-02, 3.13335985e-01,
          4.94422108e-01, 2.18466446e-02, 2.95142457e-03, 9.69030615e-03,
          1.85849499e-02, 1.27764449e-01, 4.94422108e-01, 4.94422108e-01,
          4.94422108e-01, 3.62407044e-02, 2.36395285e-01, 4.16562796e-01,
          1.28720999e-01, 6.93159401e-02, 1.25986561e-01, 5.08035839e-01,
          5.08035839e-01, 4.59084094e-01, 5.70572972e-01, 5.70572972e-01,
          5.70572972e-01, 8.09059069e-02, 2.35132072e-02, 4.78948047e-03,
          2.60515474e-02, 1.18597075e-02, 9.84936208e-02, 1.09758703e-02,
          1.17646325e-02, 1.05448142e-02, 1.34588271e-01, 6.06321275e-01,
          6.06321275e-01, 4.76792663e-01, 1.07881382e-01, 3.52330506e-02,
          2.27383971e-01, 2.51929194e-01, 4.09999579e-01, 1.33179739e-01,
          1.60437182e-01, 4.63500947e-01, 4.63500947e-01, 4.63500947e-01,
          1.55314922e-01, 4.44094092e-02, 4.97768015e-01, 5.49372733e-01,
          5.49372733e-01, 3.68322700e-01, 5.09321466e-02, 4.40699011e-02,
          1.92024000e-02, 2.41112988e-02, 4.49142933e-01, 4.49142933e-01,
          2.57379979e-01, 1.12365887e-01, 4.49142933e-01, 4.49142933e-01,
          8.11389163e-02, 7.04466179e-02, 3.13335985e-01, 5.28273284e-01,
          4.01437193e-01, 5.65678701e-02, 6.27643019e-02, 4.93575275e-01,
          1.50498092e-01, 2.91332137e-02, 3.42489928e-02, 5.28273284e-01,
          5.67256033e-01, 2.72155795e-02, 1.11678699e-02, 1.03008486e-01,
          5.50891519e-01, 9.25035477e-02, 6.15932792e-02, 1.53194636e-01,
          5.67256033e-01, 5.70572972e-01, 5.70572972e-01, 5.70572972e-01,
          8.09059069e-02, 2.35132072e-02, 4.78948047e-03, 2.60515474e-02,
          1.18597075e-02, 9.84936208e-02, 5.40472507e-01, 5.40472507e-01,
          3.43700111e-01, 1.02190264e-02, 3.33151617e-03, 0.,
          1.02118892e-03, 4.97567607e-03, 5.40472507e-01, 6.91632152e-01,
          2.59024906e-03, 5.82526147e-04, 0., 0., 4.78427741e-04,
          7.20456149e-03, 1.90594956e-01, 6.91632152e-01, 4.44094092e-02,
          4.97768015e-01, 5.49372733e-01, 5.49372733e-01, 3.68322700e-01,
          5.09321466e-02, 4.40699011e-02, 1.92024000e-02, 2.41112988e-02,
          4.03569732e-03, 5.23348562e-02, 4.58934933e-01, 6.23827875e-01,
          6.23827875e-01, 4.52714413e-02, 1.39085494e-03, 2.88130553e-03,
          3.58117255e-03, 0., 6.80646408e-05, 3.40850180e-04,
          3.21068019e-02, 7.21255362e-01, 6.86511219e-01, 1.61870625e-02,
          6.74213865e-04, 4.61240525e-05, 5.67256033e-01, 2.72155795e-02,
          1.11678699e-02, 1.03008486e-01, 5.50891519e-01, 9.25035477e-02,
          6.15932792e-02, 1.53194636e-01, 5.67256033e-01, 4.30148840e-01,
          6.53872713e-02, 1.71587348e-01, 4.30148840e-01, 4.30148840e-01,
          1.26727507e-01, 1.44171506e-01, 4.30148840e-01, 4.30148840e-01,
          3.28356698e-02, 2.79163159e-02, 6.02268100e-01, 6.02268100e-01,
          4.62472498e-01, 7.54825100e-02, 8.88137072e-02, 1.73770770e-01,
          9.49354842e-02, 6.91632152e-01, 2.59024906e-03, 5.82526147e-04,
          0., 0., 4.78427741e-04, 7.20456149e-03, 1.90594956e-01,
          6.91632152e-01, 2.36684144e-01, 1.19654778e-02, 9.55116190e-03,
          5.78088034e-03, 1.26576293e-02, 2.65239719e-02, 5.58947682e-01,
          5.58947682e-01, 5.58947682e-01, 3.68468203e-02, 3.48921269e-01,
          4.54397500e-01, 4.54397500e-01, 5.95057532e-02, 1.02412239e-01,
          4.54397500e-01, 4.54397500e-01, 1.80055797e-01, 0.,
          6.80646408e-05, 3.40850180e-04, 3.21068019e-02, 7.21255362e-01,
          6.86511219e-01, 1.61870625e-02, 6.74213865e-04, 4.61240525e-05,
          1.60637610e-02, 2.51534372e-03, 2.40048114e-02, 1.46340942e-02,
          3.87909591e-01, 6.15296602e-01, 6.15296602e-01, 2.91004360e-01,
          2.15534978e-02, 3.76774281e-01, 4.12765026e-01, 4.12765026e-01,
          5.44425920e-02, 6.85571432e-02, 4.12765026e-01, 4.12765026e-01,
          3.94454807e-01, 9.57038924e-02 ]
      - [ 3.10557902e-01, 2.59189382e-02, 7.42007568e-02, 4.26439911e-01,
          4.26439911e-01, 1.43098593e-01, 3.81097317e-01, 4.26439911e-01,
          4.26439911e-01, 1.18445702e-01, 3.97065394e-02, 1.22709014e-01,
          6.08163774e-01, 6.08163774e-01, 6.58935010e-02, 2.70073917e-02,
          1.17030844e-01, 4.52515453e-01, 2.29719486e-02, 3.50001715e-02,
          2.18222309e-02, 7.01852500e-01, 7.01852500e-01, 5.58432341e-02,
          3.02830115e-02, 2.13238131e-02, 3.28762941e-02, 5.56117117e-01,
          2.06835871e-03, 1.01853507e-02, 5.23154158e-03, 5.07586971e-02,
          8.53619911e-03, 3.40811089e-02, 5.83507001e-01, 5.83507001e-01,
          4.56370920e-01, 1.74758565e-02, 2.91252919e-02, 4.14830483e-02,
          3.31190586e-01, 2.21595481e-01, 3.58087942e-02, 5.58212638e-01,
          5.58212638e-01, 2.63336778e-01, 4.74889986e-02, 1.31282890e-02,
          3.92732918e-01, 3.92732918e-01, 3.91288817e-01, 3.92732918e-01,
          3.92732918e-01, 3.92732918e-01, 1.51888290e-02, 1.45747028e-02,
          1.27471955e-02, 4.66878489e-02, 7.01273263e-01, 7.01273263e-01,
          7.73343295e-02, 2.42962968e-02, 8.66035745e-03, 1.34874329e-01,
          6.89387321e-02, 3.76883224e-02, 5.89443743e-02, 6.55877590e-01,
          6.55877590e-01, 1.39705122e-01, 1.46360099e-01, 2.53621548e-01,
          3.87688071e-01, 2.93556869e-01, 8.93028975e-02, 1.28091192e-02,
          3.87688071e-01, 3.87688071e-01, 3.87688071e-01, 3.87688071e-01,
          3.87688071e-01, 2.29719486e-02, 3.50001715e-02, 2.18222309e-02,
          7.01852500e-01, 7.01852500e-01, 5.58432341e-02, 3.02830115e-02,
          2.13238131e-02, 3.28762941e-02, 5.25998930e-03, 4.65624267e-03,
          4.27978896e-02, 7.01360941e-01, 7.01360941e-01, 8.37770104e-02,
          1.60560869e-02, 5.16350567e-03, 6.15797937e-04, 5.96041372e-03,
          1.46575319e-02, 4.72267158e-02, 7.03182340e-01, 7.03182340e-01,
          3.09901927e-02, 2.03661323e-02, 1.23457732e-02, 6.43960573e-03,
          2.63336778e-01, 4.74889986e-02, 1.31282890e-02, 3.92732918e-01,
          3.92732918e-01, 3.91288817e-01, 3.92732918e-01, 3.92732918e-01,
          3.92732918e-01, 2.94072777e-02, 2.16771313e-03, 5.10066785e-02,
          6.85807049e-01, 6.85807049e-01, 1.63495079e-01, 1.36981145e-01,
          5.35134561e-02, 2.57249977e-02, 6.48864955e-02, 2.13602534e-03,
          1.00907106e-02, 7.01523602e-01, 7.01523602e-01, 1.32144177e-02,
          4.13277699e-03, 2.37549399e-03, 6.49024248e-02, 3.87688071e-01,
          2.93556869e-01, 8.93028975e-02, 1.28091192e-02, 3.87688071e-01,
          3.87688071e-01, 3.87688071e-01, 3.87688071e-01, 3.87688071e-01,
          5.72808564e-01, 5.72808564e-01, 3.59080993e-02, 1.41892843e-02,
          2.63627488e-02, 4.14286228e-03, 6.74116611e-02, 5.66036142e-02,
          5.72808564e-01, 6.14989817e-01, 4.67003226e-01, 1.43922132e-03,
          1.46281396e-04, 1.38610512e-01, 1.85119308e-04, 8.53587117e-04,
          1.12668788e-02, 6.14989817e-01, 5.96041372e-03, 1.46575319e-02,
          4.72267158e-02, 7.03182340e-01, 7.03182340e-01, 3.09901927e-02,
          2.03661323e-02, 1.23457732e-02, 6.43960573e-03, 3.79269198e-03,
          1.71528552e-02, 5.84022813e-02, 6.77846447e-02, 9.90825474e-01,
          3.69747379e-03, 5.26564382e-03, 2.87178741e-03, 4.17204434e-03,
          0., 0., 0., 0., 9.95024860e-01, 0., 0., 0., 0., 6.48864955e-02,
          2.13602534e-03, 1.00907106e-02, 7.01523602e-01, 7.01523602e-01,
          1.32144177e-02, 4.13277699e-03, 2.37549399e-03, 6.49024248e-02,
          5.94427250e-02, 1.76772685e-03, 3.19276610e-03, 2.62608472e-02,
          9.91131723e-01, 7.64274373e-05, 5.27480035e-04, 4.05822473e-04,
          5.94505668e-02, 4.41272883e-03, 0., 0., 0., 9.95005429e-01, 0.,
          0., 0., 4.41272883e-03, 6.14989817e-01, 4.67003226e-01,
          1.43922132e-03, 1.46281396e-04, 1.38610512e-01, 1.85119308e-04,
          8.53587117e-04, 1.12668788e-02, 6.14989817e-01, 6.84676468e-01,
          7.27607775e-03, 2.60418723e-03, 3.49668881e-05, 2.00148270e-01,
          6.40890736e-04, 1.74358534e-03, 1.24414407e-01, 6.84676468e-01,
          6.89009845e-01, 1.95165689e-04, 1.43156922e-03, 6.30318013e-04,
          2.08853841e-01, 2.79319211e-04, 2.77409999e-04, 5.46979997e-03,
          6.89009845e-01, 0., 0., 0., 0., 9.95024860e-01, 0., 0., 0., 0.,
          0., 0., 0., 0., 9.95024860e-01, 0., 0., 0., 0., 0., 0., 0., 0.,
          9.95024860e-01, 0., 0., 0., 0., 4.41272883e-03, 0., 0., 0.,
          9.95005429e-01, 0., 0., 0., 4.41272883e-03, 0., 0., 0., 0.,
          9.95024860e-01, 0., 0., 0., 0., 6.12134067e-03, 8.51328969e-02,
          2.19111100e-01, 6.75203860e-01, 6.94161534e-01, 0., 0., 0.,
          3.91470175e-03, 6.89009845e-01, 1.95165689e-04, 1.43156922e-03,
          6.30318013e-04, 2.08853841e-01, 2.79319211e-04, 2.77409999e-04,
          5.46979997e-03, 6.89009845e-01, 6.88860714e-01, 8.62935485e-05,
          2.63594236e-04, 3.30672447e-05, 2.09916577e-01, 0.,
          2.55457504e-04, 8.51525037e-05, 6.88860714e-01, 5.79190612e-01,
          4.80459929e-01, 2.44491458e-01, 9.02096704e-02, 1.56643614e-01,
          2.17697336e-04, 2.05949982e-04, 5.83060973e-05, 5.79190612e-01 ]
      - [ 2.95842569e-02, 4.47415821e-02, 6.00533970e-02, 1.35944292e-01,
          4.46790457e-01, 5.90804696e-01, 5.90804696e-01, 2.50627428e-01,
          9.27375555e-02, 4.40328836e-01, 4.40328836e-01, 1.77292615e-01,
          2.36684591e-01, 4.40328836e-01, 4.40328836e-01, 1.07770674e-01,
          1.21227168e-01, 3.26007187e-01, 5.33968508e-01, 5.33968508e-01,
          5.33968508e-01, 1.82181776e-01, 2.81546593e-01, 7.33505422e-03,
          1.21552718e-03, 1.13006001e-02, 1.63275093e-01, 1.75851941e-01,
          4.32254136e-01, 4.32254136e-01, 7.24314377e-02, 7.98298270e-02,
          4.32254136e-01, 4.32254136e-01, 4.32254136e-01, 1.37554079e-01,
          5.71503818e-01, 5.71503818e-01, 5.71503818e-01, 2.76770573e-02,
          8.71731900e-03, 1.20564355e-02, 1.34393442e-02, 1.63859501e-02,
          1.14047281e-01, 6.09960854e-01, 6.09960854e-01, 1.29182309e-01,
          2.85298247e-02, 4.43037488e-02, 2.89970357e-02, 3.93274166e-02,
          5.45207337e-02, 4.74320978e-01, 6.65200874e-02, 1.97552994e-01,
          4.27557915e-01, 4.27557915e-01, 1.57862708e-01, 1.15444392e-01,
          4.27557915e-01, 4.27557915e-01, 4.27557915e-01, 1.77861005e-02,
          3.17063987e-01, 5.75960994e-01, 5.75960994e-01, 4.73323315e-01,
          1.24731595e-02, 3.13817337e-02, 5.41937202e-02, 4.27616723e-02,
          1.22635160e-02, 1.65378004e-02, 8.65447521e-02, 5.28265059e-01,
          7.07737148e-01, 4.44413960e-01, 8.38123336e-02, 2.17263512e-02,
          8.06712266e-03, 5.33968508e-01, 5.33968508e-01, 5.33968508e-01,
          1.82181776e-01, 2.81546593e-01, 7.33505422e-03, 1.21552718e-03,
          1.13006001e-02, 1.63275093e-01, 4.78760116e-02, 4.76973146e-01,
          4.76973146e-01, 6.06189556e-02, 4.76973146e-01, 3.39387625e-01,
          4.34954345e-01, 3.47901173e-02, 3.43422182e-02, 1.35796756e-04,
          4.45547793e-03, 1.05922669e-01, 2.28842869e-01, 9.47427452e-01,
          1.60498902e-01, 5.96594475e-02, 1.24924781e-03, 1.35796756e-04,
          6.09960854e-01, 6.09960854e-01, 1.29182309e-01, 2.85298247e-02,
          4.43037488e-02, 2.89970357e-02, 3.93274166e-02, 5.45207337e-02,
          4.74320978e-01, 5.62784076e-03, 6.89213164e-03, 1.55816395e-02,
          3.93589139e-02, 5.00202656e-01, 4.92391884e-01, 5.00202656e-01,
          5.00202656e-01, 8.67729262e-03, 4.51319758e-03, 1.86842993e-01,
          5.13917565e-01, 3.23517859e-01, 5.13917565e-01, 2.57639676e-01,
          4.86347765e-01, 1.54912218e-01, 1.18507762e-02, 1.22635160e-02,
          1.65378004e-02, 8.65447521e-02, 5.28265059e-01, 7.07737148e-01,
          4.44413960e-01, 8.38123336e-02, 2.17263512e-02, 8.06712266e-03,
          2.92479992e-02, 2.22743079e-02, 7.20658572e-03, 3.99852432e-02,
          4.10449624e-01, 5.88575423e-01, 5.88575423e-01, 3.59754711e-01,
          1.96479894e-02, 1.89852029e-01, 3.76013726e-01, 3.76013726e-01,
          3.76013726e-01, 3.03626955e-01, 3.76013726e-01, 3.76013726e-01,
          3.60207647e-01, 1.77000672e-01, 1.35796756e-04, 4.45547793e-03,
          1.05922669e-01, 2.28842869e-01, 9.47427452e-01, 1.60498902e-01,
          5.96594475e-02, 1.24924781e-03, 1.35796756e-04, 3.93522717e-02,
          1.67568587e-02, 2.78392315e-01, 1.95099637e-01, 5.38900673e-01,
          5.55324778e-02, 5.38900673e-01, 5.38900673e-01, 5.38243726e-02,
          3.11010450e-01, 1.70370769e-02, 9.29191243e-03, 2.78699081e-02,
          3.19546938e-01, 1.62341207e-01, 5.06161749e-01, 5.06161749e-01,
          5.06161749e-01, 4.51319758e-03, 1.86842993e-01, 5.13917565e-01,
          3.23517859e-01, 5.13917565e-01, 2.57639676e-01, 4.86347765e-01,
          1.54912218e-01, 1.18507762e-02, 7.54231447e-03, 4.98890370e-01,
          4.98890370e-01, 4.94457245e-01, 4.98890370e-01, 2.56405156e-02,
          4.00278717e-02, 3.62233296e-02, 1.50279077e-02, 5.58559299e-01,
          4.30525132e-02, 3.26452702e-02, 8.86747055e-03, 3.52208316e-02,
          2.70424988e-02, 2.31272906e-01, 5.58559299e-01, 5.58559299e-01,
          1.89852029e-01, 3.76013726e-01, 3.76013726e-01, 3.76013726e-01,
          3.03626955e-01, 3.76013726e-01, 3.76013726e-01, 3.60207647e-01,
          1.77000672e-01, 1.41968904e-02, 2.79599994e-01, 5.55853426e-01,
          5.55853426e-01, 5.44816077e-01, 1.78939477e-02, 7.97951873e-03,
          2.50419751e-02, 1.70299821e-02, 1.42460363e-02, 3.01062390e-02,
          5.19487858e-02, 2.41667062e-01, 6.74259782e-01, 6.74259782e-01,
          1.46556064e-01, 1.17720338e-02, 1.37149999e-02, 3.11010450e-01,
          1.70370769e-02, 9.29191243e-03, 2.78699081e-02, 3.19546938e-01,
          1.62341207e-01, 5.06161749e-01, 5.06161749e-01, 5.06161749e-01,
          3.10745269e-01, 1.17908902e-01, 2.66085595e-01, 4.28036422e-01,
          4.28036422e-01, 1.97535634e-01, 2.06340954e-01, 4.28036422e-01,
          4.28036422e-01, 5.25572002e-02, 1.08573653e-01, 6.66869760e-01,
          6.66869760e-01, 2.92778820e-01, 2.19060760e-02, 3.14169079e-02,
          3.26366685e-02, 3.33139487e-02, 5.58559299e-01, 4.30525132e-02,
          3.26452702e-02, 8.86747055e-03, 3.52208316e-02, 2.70424988e-02,
          2.31272906e-01, 5.58559299e-01, 5.58559299e-01, 1.60729676e-01,
          2.60122698e-02, 1.13262534e-02, 1.78498942e-02, 1.40031166e-02,
          1.76543191e-01, 5.58599651e-01, 5.58599651e-01, 5.58599651e-01,
          1.14167303e-01, 4.27398115e-01, 4.27398115e-01, 4.27398115e-01,
          1.14414975e-01, 1.46739557e-01, 4.27398115e-01, 4.27398115e-01,
          1.86353251e-01, 1.42460363e-02, 3.01062390e-02, 5.19487858e-02,
          2.41667062e-01, 6.74259782e-01, 6.74259782e-01, 1.46556064e-01,
          1.17720338e-02, 1.37149999e-02, 3.36899348e-02, 2.69232653e-02,
          3.38619500e-02, 9.05761719e-02, 3.48015070e-01, 5.79861104e-01,
          5.79861104e-01, 4.28310126e-01, 7.71850869e-02, 4.35166121e-01,
          4.35166121e-01, 4.35166121e-01, 1.67721733e-01, 7.30214566e-02,
          3.27350497e-01, 4.35166121e-01, 2.76877552e-01, 1.44542828e-01 ]
      - [ 4.21544850e-01, 4.21544850e-01, 2.33772814e-01, 7.99513757e-02,
          4.21544850e-01, 4.21544850e-01, 4.21544850e-01, 1.90474868e-01,
          9.98302847e-02, 4.70455378e-01, 4.70455378e-01, 1.90184489e-01,
          1.79415613e-01, 4.70455378e-01, 1.70760527e-01, 4.16969620e-02,
          1.03586204e-01, 4.70455378e-01, 4.97435242e-01, 4.97435242e-01,
          4.97435242e-01, 3.33673090e-01, 2.02027082e-01, 2.39844322e-02,
          3.14631080e-03, 5.71791939e-02, 3.10964763e-01, 2.81610072e-01,
          5.46388328e-01, 5.46388328e-01, 3.50985886e-03, 5.88577166e-02,
          2.98508033e-02, 4.70178097e-01, 2.65517145e-01, 1.49079397e-01,
          4.98679370e-01, 4.98679370e-01, 4.98679370e-01, 4.05110465e-03,
          9.68713500e-03, 7.09104352e-03, 8.77532735e-03, 7.58182537e-03,
          4.98679370e-01, 4.37498242e-01, 4.37498242e-01, 1.75001308e-01,
          3.13333422e-02, 4.37498242e-01, 4.37498242e-01, 7.36258775e-02,
          3.97279710e-02, 4.37498242e-01, 8.39637071e-02, 4.36012238e-01,
          4.36012238e-01, 4.36012238e-01, 9.15070698e-02, 7.00357184e-02,
          4.36012238e-01, 4.36012238e-01, 1.57425985e-01, 1.07488967e-02,
          3.99411321e-01, 4.56294030e-01, 4.56294030e-01, 4.56294030e-01,
          4.56294030e-01, 5.29512092e-02, 1.27978083e-02, 3.57709802e-03,
          8.91836509e-02, 3.72896306e-02, 3.06144767e-02, 4.05963324e-02,
          6.72058344e-01, 6.72058344e-01, 2.64506310e-01, 3.60451080e-02,
          8.23013932e-02, 4.97435242e-01, 4.97435242e-01, 4.97435242e-01,
          3.33673090e-01, 2.02027082e-01, 2.39844322e-02, 3.14631080e-03,
          5.71791939e-02, 3.10964763e-01, 4.14704829e-02, 6.88043296e-01,
          6.88043296e-01, 1.30739748e-01, 1.45176366e-01, 5.28692342e-02,
          5.25150560e-02, 2.67460048e-02, 1.29265832e-02, 5.71656041e-02,
          7.43776485e-02, 5.56051396e-02, 4.68025506e-02, 6.95349991e-01,
          6.95349991e-01, 9.34794992e-02, 5.02859615e-02, 2.61919424e-02,
          4.37498242e-01, 4.37498242e-01, 1.75001308e-01, 3.13333422e-02,
          4.37498242e-01, 4.37498242e-01, 7.36258775e-02, 3.97279710e-02,
          4.37498242e-01, 1.02926549e-02, 2.36211289e-02, 2.56732441e-02,
          7.27562085e-02, 6.96122766e-01, 6.96122766e-01, 1.26833647e-01,
          3.14594135e-02, 1.35713657e-02, 3.14175896e-02, 1.45262312e-02,
          2.72040139e-03, 4.79623899e-02, 7.02539444e-01, 7.02539444e-01,
          3.18443142e-02, 1.98839493e-02, 3.07929628e-02, 8.91836509e-02,
          3.72896306e-02, 3.06144767e-02, 4.05963324e-02, 6.72058344e-01,
          6.72058344e-01, 2.64506310e-01, 3.60451080e-02, 8.23013932e-02,
          5.18730164e-01, 2.67871678e-01, 5.31004705e-02, 6.42482638e-02,
          5.18730164e-01, 5.18730164e-01, 1.23399295e-01, 6.06273375e-02,
          2.99951196e-01, 4.55647051e-01, 4.55647051e-01, 6.67802570e-03,
          5.54013774e-02, 4.54199016e-01, 4.55647051e-01, 2.43231580e-02,
          2.93194111e-02, 4.02174264e-01, 5.71656041e-02, 7.43776485e-02,
          5.56051396e-02, 4.68025506e-02, 6.95349991e-01, 6.95349991e-01,
          9.34794992e-02, 5.02859615e-02, 2.61919424e-02, 6.79901103e-03,
          8.07744823e-03, 1.47026572e-02, 5.53448983e-02, 6.95813179e-01,
          6.95813179e-01, 1.42204523e-01, 2.38913223e-02, 2.36332882e-02,
          3.96265369e-03, 3.21350200e-03, 2.21339315e-02, 9.82616544e-02,
          6.99883521e-01, 6.99883521e-01, 2.66294107e-02, 4.66333665e-02,
          1.68638695e-02, 3.14175896e-02, 1.45262312e-02, 2.72040139e-03,
          4.79623899e-02, 7.02539444e-01, 7.02539444e-01, 3.18443142e-02,
          1.98839493e-02, 3.07929628e-02, 3.78055185e-01, 1.20471671e-01,
          4.87060025e-02, 1.20977148e-01, 6.25852048e-01, 6.25852048e-01,
          9.93739367e-02, 3.13555896e-02, 1.58317775e-01, 4.29678828e-01,
          4.29678828e-01, 6.91624954e-02, 1.97151452e-01, 4.29678828e-01,
          4.29678828e-01, 7.20784590e-02, 1.54081121e-01, 4.29678828e-01,
          4.55647051e-01, 4.55647051e-01, 6.67802570e-03, 5.54013774e-02,
          4.54199016e-01, 4.55647051e-01, 2.43231580e-02, 2.93194111e-02,
          4.02174264e-01, 5.72275043e-01, 5.72275043e-01, 1.01323519e-02,
          3.20902951e-02, 7.74497166e-02, 6.13121055e-02, 2.53924523e-02,
          1.59556661e-02, 5.72275043e-01, 5.75411081e-01, 5.75411081e-01,
          1.48844197e-02, 1.09741520e-02, 1.67742446e-02, 1.87318947e-03,
          1.21946810e-02, 1.35997692e-02, 5.75411081e-01, 3.96265369e-03,
          3.21350200e-03, 2.21339315e-02, 9.82616544e-02, 6.99883521e-01,
          6.99883521e-01, 2.66294107e-02, 4.66333665e-02, 1.68638695e-02,
          1.24959387e-01, 3.62018086e-02, 1.41354753e-02, 5.33937514e-02,
          6.92643821e-01, 6.92643821e-01, 9.75757390e-02, 2.84063499e-02,
          5.71892932e-02, 4.48619425e-01, 4.48619425e-01, 3.73717368e-01,
          1.40173927e-01, 4.48619425e-01, 4.48619425e-01, 6.75897002e-02,
          1.51103912e-02, 1.62392199e-01, 4.29678828e-01, 4.29678828e-01,
          6.91624954e-02, 1.97151452e-01, 4.29678828e-01, 4.29678828e-01,
          7.20784590e-02, 1.54081121e-01, 4.29678828e-01, 5.61268032e-01,
          5.61268032e-01, 4.18269038e-02, 8.16279575e-02, 1.78491637e-01,
          1.86403364e-01, 2.51110829e-02, 6.24459125e-02, 5.33669949e-01,
          6.26306593e-01, 6.26306593e-01, 1.41397845e-02, 2.77205417e-03,
          2.89306324e-02, 1.37263825e-02, 1.37252407e-02, 7.72917131e-03,
          4.55791295e-01, 5.75411081e-01, 5.75411081e-01, 1.48844197e-02,
          1.09741520e-02, 1.67742446e-02, 1.87318947e-03, 1.21946810e-02,
          1.35997692e-02, 5.75411081e-01, 5.75453699e-01, 5.75453699e-01,
          2.72765607e-02, 4.47096722e-03, 3.88498092e-03, 3.98186781e-03,
          1.56483869e-03, 3.92652908e-03, 5.75453699e-01, 7.70307600e-01,
          2.86409497e-01, 4.99624666e-03, 0., 0., 1.12348190e-03,
          1.22319872e-03, 2.61547714e-02, 5.62313020e-01 ]
      - [ 8.05942416e-02, 5.41213870e-01, 5.41213870e-01, 3.93909752e-01,
          2.83203751e-01, 1.28761381e-01, 3.54979873e-01, 1.44114926e-01,
          5.95532954e-02, 3.69720371e-03, 5.44568121e-01, 5.44568121e-01,
          3.10271502e-01, 5.44568121e-01, 9.27830338e-02, 2.34580389e-03,
          3.37865524e-04, 1.45450793e-03, 1.76318910e-03, 1.11315981e-03,
          3.68809165e-03, 3.35269086e-02, 9.90498841e-01, 8.78951102e-02,
          1.20812859e-02, 3.89873004e-03, 1.65701727e-03, 3.56374919e-01,
          3.56374919e-01, 3.56374919e-01, 3.56374919e-01, 3.56374919e-01,
          3.25047761e-01, 3.56374919e-01, 3.56374919e-01, 4.19757664e-02,
          3.79615068e-01, 7.27006644e-02, 3.60984623e-01, 4.69617367e-01,
          4.69617367e-01, 4.69617367e-01, 1.34113515e-02, 1.19282082e-02,
          2.31652677e-01, 4.15098190e-01, 2.47892528e-03, 9.30969324e-03,
          4.27598432e-02, 7.42882192e-01, 2.55769134e-01, 2.87896357e-02,
          7.33511057e-03, 4.47418094e-01, 4.74622011e-01, 4.74622011e-01,
          4.74622011e-01, 5.42943664e-02, 1.46581069e-01, 1.83820233e-01,
          4.74622011e-01, 1.74101174e-01, 7.52340704e-02, 5.52182138e-01,
          5.52182138e-01, 2.47879744e-01, 3.30809541e-02, 1.15609236e-01,
          6.12071529e-02, 6.33302843e-03, 8.94953497e-03, 5.52182138e-01,
          6.97653472e-01, 2.76682270e-03, 5.67729305e-03, 4.27099131e-03,
          1.34068131e-01, 3.82649265e-02, 8.89679976e-03, 4.37564449e-03,
          6.97653472e-01, 1.76318910e-03, 1.11315981e-03, 3.68809165e-03,
          3.35269086e-02, 9.90498841e-01, 8.78951102e-02, 1.20812859e-02,
          3.89873004e-03, 1.65701727e-03, 1.38217919e-02, 8.44155345e-03,
          7.84880202e-03, 7.21269241e-03, 9.92994487e-01, 3.31449397e-02,
          4.59209643e-02, 1.91928055e-02, 1.02493977e-02, 1.45318815e-02,
          2.55269334e-02, 2.37982348e-02, 3.74139130e-01, 9.05919373e-01,
          1.66765869e-01, 2.49746069e-02, 1.68274194e-02, 1.20124463e-02,
          4.15098190e-01, 2.47892528e-03, 9.30969324e-03, 4.27598432e-02,
          7.42882192e-01, 2.55769134e-01, 2.87896357e-02, 7.33511057e-03,
          4.47418094e-01, 4.26217735e-01, 5.05712302e-03, 1.99638084e-02,
          2.93105561e-02, 7.89471567e-01, 5.67700900e-03, 4.69465647e-03,
          4.61589918e-03, 4.31086212e-01, 3.80790800e-01, 1.01920422e-02,
          8.51922110e-02, 5.85176766e-01, 5.85176766e-01, 1.04044273e-01,
          2.63092015e-02, 2.14816015e-02, 3.80724430e-01, 6.97653472e-01,
          2.76682270e-03, 5.67729305e-03, 4.27099131e-03, 1.34068131e-01,
          3.82649265e-02, 8.89679976e-03, 4.37564449e-03, 6.97653472e-01,
          6.97780073e-01, 1.64669682e-03, 9.11849365e-03, 9.36177745e-03,
          1.38071075e-01, 4.44181234e-04, 1.18649367e-03, 1.27998390e-03,
          6.97780073e-01, 6.92158401e-01, 3.15514649e-03, 2.73825079e-02,
          8.54487121e-02, 1.61108613e-01, 1.63904447e-02, 2.30359230e-02,
          1.03554660e-02, 6.92158401e-01, 1.45318815e-02, 2.55269334e-02,
          2.37982348e-02, 3.74139130e-01, 9.05919373e-01, 1.66765869e-01,
          2.49746069e-02, 1.68274194e-02, 1.20124463e-02, 7.67367333e-02,
          6.57787398e-02, 9.75769162e-02, 5.32258213e-01, 5.32258213e-01,
          5.32258213e-01, 3.44395280e-01, 5.17892800e-02, 6.13302290e-02,
          1.14716301e-02, 1.10141858e-02, 2.52431072e-02, 6.57867789e-02,
          8.28331172e-01, 5.19114912e-01, 1.75489798e-01, 5.26606804e-03,
          8.85892753e-03, 3.80790800e-01, 1.01920422e-02, 8.51922110e-02,
          5.85176766e-01, 5.85176766e-01, 1.04044273e-01, 2.63092015e-02,
          2.14816015e-02, 3.80724430e-01, 3.58237714e-01, 6.58314209e-03,
          5.85680865e-02, 4.98607516e-01, 5.32945693e-01, 4.25063103e-01,
          1.46530375e-01, 1.37660941e-02, 3.57617050e-01, 3.96205336e-01,
          1.21778306e-02, 4.00130115e-02, 7.78281540e-02, 5.37396729e-01,
          5.37396729e-01, 3.01879466e-01, 9.80416089e-02, 3.89248341e-01,
          6.92158401e-01, 3.15514649e-03, 2.73825079e-02, 8.54487121e-02,
          1.61108613e-01, 1.63904447e-02, 2.30359230e-02, 1.03554660e-02,
          6.92158401e-01, 6.36741877e-01, 2.33437913e-03, 1.98659059e-02,
          5.58749251e-02, 4.19479966e-01, 5.66099435e-02, 8.18048697e-03,
          2.26226193e-03, 6.36741877e-01, 6.98991239e-01, 4.23775800e-03,
          1.57984756e-02, 2.00101342e-02, 1.05246350e-01, 5.70317544e-02,
          2.32775230e-02, 1.74815711e-02, 6.98991239e-01, 1.14716301e-02,
          1.10141858e-02, 2.52431072e-02, 6.57867789e-02, 8.28331172e-01,
          5.19114912e-01, 1.75489798e-01, 5.26606804e-03, 8.85892753e-03,
          5.09910146e-03, 4.95906826e-03, 9.04409867e-03, 2.00220998e-02,
          9.93981659e-01, 3.67550440e-02, 1.16596706e-02, 6.04794221e-03,
          5.34337340e-03, 6.70256978e-03, 7.14532752e-03, 2.28369478e-02,
          2.59993821e-01, 9.57959175e-01, 5.17757386e-02, 3.38731632e-02,
          1.98963452e-02, 1.78643689e-02, 3.96205336e-01, 1.21778306e-02,
          4.00130115e-02, 7.78281540e-02, 5.37396729e-01, 5.37396729e-01,
          3.01879466e-01, 9.80416089e-02, 3.89248341e-01, 4.89485681e-01,
          2.68775155e-03, 8.01827293e-03, 7.39793899e-03, 7.16086984e-01,
          9.97766480e-02, 4.64146174e-02, 4.24765311e-02, 4.75852013e-01,
          6.10605240e-01, 1.16387285e-01, 2.33404458e-01, 2.89143354e-01,
          6.10605240e-01, 5.91073371e-03, 3.48159834e-03, 1.46606984e-03,
          3.10723424e-01, 6.98991239e-01, 4.23775800e-03, 1.57984756e-02,
          2.00101342e-02, 1.05246350e-01, 5.70317544e-02, 2.32775230e-02,
          1.74815711e-02, 6.98991239e-01, 7.04148054e-01, 1.12358993e-03,
          2.40114797e-03, 6.76615688e-04, 5.77568309e-03, 3.21458988e-02,
          1.39490888e-02, 7.29652354e-03, 7.04148054e-01, 6.93539739e-01,
          1.68069735e-01, 5.20491600e-02, 3.87993734e-03, 7.03344075e-03,
          4.75743506e-03, 3.41215939e-03, 5.17210877e-03, 6.93539739e-01 ]
      - [ 8.91592540e-03, 5.43747127e-01, 5.43747127e-01, 3.24786216e-01,
          3.20828557e-01, 9.61208344e-02, 4.12299871e-01, 1.23873748e-01,
          1.32855605e-02, 2.18175771e-03, 5.02487242e-01, 5.02487242e-01,
          4.35631543e-01, 5.02487242e-01, 2.18418196e-01, 2.59241113e-03,
          1.31355575e-03, 2.58080428e-03, 3.74476571e-04, 1.78829511e-03,
          2.73584551e-03, 2.65231618e-04, 9.89655912e-01, 1.03432119e-01,
          0., 0., 1.57369359e-04, 2.14656994e-01, 3.69380981e-01,
          3.69380981e-01, 3.69380981e-01, 3.69380981e-01, 1.59219414e-01,
          3.69380981e-01, 3.69380981e-01, 3.25925261e-01, 3.48476082e-01,
          1.16127595e-01, 2.86808789e-01, 4.86297816e-01, 4.86297816e-01,
          4.86297816e-01, 8.15366805e-02, 3.61768380e-02, 2.46066600e-01,
          4.31449354e-01, 4.15710907e-04, 3.72720679e-05, 5.49458782e-05,
          7.76981056e-01, 1.12089172e-01, 9.11548361e-03, 4.05318290e-03,
          4.35584217e-01, 4.55845803e-01, 4.55845803e-01, 4.55845803e-01,
          1.59594610e-01, 2.14759856e-01, 1.42271876e-01, 4.55845803e-01,
          1.92895606e-01, 1.87677830e-01, 4.97465283e-01, 4.97465283e-01,
          4.91670370e-01, 3.22659612e-02, 9.20708850e-02, 1.13647776e-02,
          3.12352721e-02, 1.59354955e-02, 4.97465283e-01, 7.01610267e-01,
          2.99626845e-03, 2.30771562e-04, 6.77963981e-05, 9.19215456e-02,
          1.30464497e-03, 4.10472369e-03, 2.23736023e-03, 7.01610267e-01,
          3.74476571e-04, 1.78829511e-03, 2.73584551e-03, 2.65231618e-04,
          9.89655912e-01, 1.03432119e-01, 0., 0., 1.57369359e-04,
          3.05771478e-03, 4.92041407e-04, 0., 2.38788500e-03,
          9.94436681e-01, 1.93256699e-02, 2.71839071e-02, 6.92569977e-03,
          4.89483762e-04, 1.46919452e-02, 1.77805945e-02, 1.83126926e-02,
          3.59488763e-02, 9.37090337e-01, 3.30859870e-01, 2.93474086e-02,
          4.76604048e-03, 8.94561235e-04, 4.31449354e-01, 4.15710907e-04,
          3.72720679e-05, 5.49458782e-05, 7.76981056e-01, 1.12089172e-01,
          9.11548361e-03, 4.05318290e-03, 4.35584217e-01, 4.31252480e-01,
          1.91806539e-05, 0., 5.56120067e-04, 7.87555337e-01,
          4.87746578e-03, 1.02872995e-03, 6.14853692e-04, 4.31152374e-01,
          4.36310351e-01, 3.14600882e-04, 2.75961356e-04, 7.30322720e-03,
          7.36039400e-01, 2.65738934e-01, 8.73523648e-04, 4.14735056e-04,
          4.35730159e-01, 7.01610267e-01, 2.99626845e-03, 2.30771562e-04,
          6.77963981e-05, 9.19215456e-02, 1.30464497e-03, 4.10472369e-03,
          2.23736023e-03, 7.01610267e-01, 7.01674402e-01, 0., 0., 0.,
          9.11141112e-02, 0., 0., 0., 7.01674402e-01, 7.02405751e-01, 0.,
          0., 0., 7.89981410e-02, 0., 0., 0., 7.02405751e-01,
          1.46919452e-02, 1.77805945e-02, 1.83126926e-02, 3.59488763e-02,
          9.37090337e-01, 3.30859870e-01, 2.93474086e-02, 4.76604048e-03,
          8.94561235e-04, 0., 3.20991967e-03, 8.13590363e-03,
          2.86964811e-02, 9.58958089e-01, 2.64049083e-01, 1.26416953e-02,
          6.94183679e-03, 1.67928787e-03, 0., 2.91291391e-03,
          9.07903444e-03, 2.03692131e-02, 9.94769216e-01, 2.32563959e-03,
          0., 2.05391028e-04, 1.24834449e-04, 4.36310351e-01,
          3.14600882e-04, 2.75961356e-04, 7.30322720e-03, 7.36039400e-01,
          2.65738934e-01, 8.73523648e-04, 4.14735056e-04, 4.35730159e-01,
          4.52345729e-01, 8.99431761e-05, 2.52782804e-04, 7.66443694e-03,
          7.03420818e-01, 2.97995299e-01, 2.53609032e-04, 2.35276326e-04,
          4.52438533e-01, 4.58888888e-01, 8.08048135e-05, 2.62520392e-04,
          4.41544456e-03, 7.55824506e-01, 9.78340744e-04, 0.,
          1.21353760e-05, 4.58896250e-01, 7.02405751e-01, 0., 0., 0.,
          7.89981410e-02, 0., 0., 0., 7.02405751e-01, 7.04537809e-01, 0.,
          0., 0., 1.48307784e-02, 0., 0., 0., 7.04537809e-01,
          7.04615593e-01, 0., 0., 0., 0., 0., 0., 0., 7.04615593e-01, 0.,
          2.91291391e-03, 9.07903444e-03, 2.03692131e-02, 9.94769216e-01,
          2.32563959e-03, 0., 2.05391028e-04, 1.24834449e-04, 0., 0., 0.,
          0., 9.95004117e-01, 4.36335569e-03, 4.73534456e-03,
          4.43726196e-04, 0., 4.88186395e-03, 3.91572341e-03,
          2.25461107e-02, 2.30785906e-01, 9.66320157e-01, 4.49021980e-02,
          2.62046847e-02, 2.34647584e-03, 8.21339991e-03, 4.58888888e-01,
          8.08048135e-05, 2.62520392e-04, 4.41544456e-03, 7.55824506e-01,
          9.78340744e-04, 0., 1.21353760e-05, 4.58896250e-01,
          4.58444625e-01, 0., 0., 0., 7.56377280e-01, 9.74703755e-04,
          1.27411055e-04, 1.85517856e-05, 4.58444625e-01, 4.58445460e-01,
          8.97908062e-02, 2.79831111e-01, 2.89099842e-01, 6.72556102e-01,
          9.06627718e-03, 5.65751863e-04, 8.63926980e-05, 4.00939673e-01,
          7.04615593e-01, 0., 0., 0., 0., 0., 0., 0., 7.04615593e-01,
          7.04615176e-01, 0., 0., 0., 0., 0., 9.30655748e-04,
          5.99793624e-04, 7.04615176e-01, 6.95784330e-01, 1.30464464e-01,
          8.80817622e-02, 3.56893986e-03, 1.93712371e-03, 1.34363689e-03,
          3.78124556e-03, 3.28799873e-03, 6.95784330e-01 ]
      - [ 1.73954538e-03, 3.34431738e-01, 5.16240895e-01, 5.16240895e-01,
          5.16240895e-01, 7.24910200e-02, 2.69117445e-01, 7.61793107e-02,
          4.20261291e-04, 1.54697825e-03, 4.81225580e-01, 5.06483257e-01,
          5.06483257e-01, 5.00227630e-01, 6.51758024e-03, 5.91469137e-03,
          1.83596998e-03, 1.46618357e-03, 1.98107939e-02, 0.,
          7.00371936e-02, 3.91726673e-01, 7.95363009e-01, 3.13019425e-01,
          2.88689703e-01, 6.80837333e-02, 1.21466473e-01, 1.54274935e-02,
          6.29463434e-01, 6.29463434e-01, 1.45774022e-01, 9.18086469e-02,
          2.66562821e-03, 3.91217232e-01, 1.34584814e-01, 1.33789126e-02,
          1.62548828e-03, 6.99162960e-01, 6.99162960e-01, 6.09801263e-02,
          8.78022164e-02, 4.31824625e-02, 2.92996597e-02, 3.45478430e-02,
          3.97242373e-03, 7.69497012e-04, 3.97904627e-02, 3.33631150e-02,
          6.51644990e-02, 7.00475276e-01, 7.00475276e-01, 4.10167240e-02,
          5.42099662e-02, 1.05696395e-02, 5.88955507e-02, 5.51048458e-01,
          5.51048458e-01, 3.41221541e-01, 2.69577891e-01, 6.10178001e-02,
          3.99205655e-01, 1.58065915e-01, 8.08841363e-02, 1.08518293e-02,
          3.08859080e-01, 5.33934772e-01, 2.08891124e-01, 5.33934772e-01,
          5.33934772e-01, 6.09839801e-03, 6.48075948e-03, 1.35094142e-02,
          2.70643234e-01, 1.22236043e-01, 5.02567217e-02, 3.37023772e-02,
          6.69742048e-01, 6.69742048e-01, 4.36981320e-02, 3.75018604e-02,
          3.22197713e-02, 1.98107939e-02, 0., 7.00371936e-02,
          3.91726673e-01, 7.95363009e-01, 3.13019425e-01, 2.88689703e-01,
          6.80837333e-02, 1.21466473e-01, 9.65480041e-03, 1.18157500e-02,
          3.98984589e-02, 1.19178183e-01, 6.76547110e-01, 6.76547110e-01,
          2.22580507e-01, 1.03371710e-01, 3.94731425e-02, 8.30292050e-03,
          7.50389183e-03, 8.76581017e-03, 3.97250690e-02, 7.03627288e-01,
          7.03627288e-01, 2.41488982e-02, 1.39673436e-02, 1.53356902e-02,
          7.69497012e-04, 3.97904627e-02, 3.33631150e-02, 6.51644990e-02,
          7.00475276e-01, 7.00475276e-01, 4.10167240e-02, 5.42099662e-02,
          1.05696395e-02, 1.03595983e-02, 4.93630441e-03, 8.20182823e-03,
          2.43268907e-02, 7.04245448e-01, 7.04245448e-01, 7.10334955e-03,
          1.00614419e-02, 1.02185141e-02, 4.04698908e-01, 2.58859396e-01,
          4.25197072e-02, 5.30538671e-02, 6.11807048e-01, 6.11807048e-01,
          1.00331195e-03, 1.34567451e-02, 9.83944833e-02, 2.70643234e-01,
          1.22236043e-01, 5.02567217e-02, 3.37023772e-02, 6.69742048e-01,
          6.69742048e-01, 4.36981320e-02, 3.75018604e-02, 3.22197713e-02,
          5.24111688e-01, 5.24111688e-01, 5.27924262e-02, 3.04191327e-03,
          3.79506052e-01, 5.24111688e-01, 5.63205704e-02, 5.04060127e-02,
          1.34732082e-01, 6.80783927e-01, 6.80783927e-01, 2.62665711e-02,
          1.78151187e-02, 6.33994192e-02, 1.08976938e-01, 4.17300500e-03,
          1.65952947e-02, 2.21528530e-01, 8.30292050e-03, 7.50389183e-03,
          8.76581017e-03, 3.97250690e-02, 7.03627288e-01, 7.03627288e-01,
          2.41488982e-02, 1.39673436e-02, 1.53356902e-02, 5.47542050e-02,
          5.24985157e-02, 1.65476631e-02, 2.98210084e-02, 7.01814592e-01,
          7.01814592e-01, 1.07098436e-02, 1.11152353e-02, 2.74080019e-02,
          5.29389620e-01, 3.59868318e-01, 7.44789615e-02, 2.74071861e-02,
          5.29389620e-01, 5.29389620e-01, 1.35679869e-02, 3.95728238e-02,
          1.28060505e-01, 4.04698908e-01, 2.58859396e-01, 4.25197072e-02,
          5.30538671e-02, 6.11807048e-01, 6.11807048e-01, 1.00331195e-03,
          1.34567451e-02, 9.83944833e-02, 5.26515663e-01, 5.26515663e-01,
          6.42875656e-02, 1.47537794e-02, 3.50410759e-01, 5.26515663e-01,
          1.16613880e-03, 1.33163072e-02, 1.89126298e-01, 6.87368035e-01,
          6.87368035e-01, 2.95311641e-02, 6.19304879e-03, 3.66015881e-02,
          7.69288465e-02, 6.35548169e-03, 2.51160711e-02, 1.98366851e-01,
          6.80783927e-01, 6.80783927e-01, 2.62665711e-02, 1.78151187e-02,
          6.33994192e-02, 1.08976938e-01, 4.17300500e-03, 1.65952947e-02,
          2.21528530e-01, 6.92366064e-01, 6.92366064e-01, 2.77317986e-02,
          1.66531168e-02, 1.49447927e-02, 1.26784127e-02, 1.04901763e-02,
          1.29177710e-02, 1.80664167e-01, 6.73583865e-01, 6.73583865e-01,
          9.00229588e-02, 4.54706810e-02, 4.38296609e-02, 2.50315331e-02,
          2.11760923e-02, 6.34550676e-02, 2.62012869e-01, 5.29389620e-01,
          3.59868318e-01, 7.44789615e-02, 2.74071861e-02, 5.29389620e-01,
          5.29389620e-01, 1.35679869e-02, 3.95728238e-02, 1.28060505e-01,
          3.99644792e-01, 3.99644792e-01, 4.80873622e-02, 3.42966020e-02,
          3.99644792e-01, 3.99644792e-01, 1.84994534e-01, 3.99644792e-01,
          3.99644792e-01, 2.14846626e-01, 3.83582294e-01, 3.83582294e-01,
          1.96848467e-01, 3.83582294e-01, 1.68663159e-01, 3.83582294e-01,
          3.83582294e-01, 3.83582294e-01, 6.87368035e-01, 6.87368035e-01,
          2.95311641e-02, 6.19304879e-03, 3.66015881e-02, 7.69288465e-02,
          6.35548169e-03, 2.51160711e-02, 1.98366851e-01, 4.87402439e-01,
          4.38657612e-01, 6.27744431e-03, 1.71724544e-03, 6.81374688e-03,
          7.34086940e-03, 4.87402439e-01, 4.87402439e-01, 2.99808860e-01,
          2.29344945e-02, 2.66753942e-01, 5.46847284e-01, 0.,
          1.17724143e-01, 7.15286508e-02, 5.46847284e-01, 5.46847284e-01,
          8.21847990e-02, 6.73583865e-01, 6.73583865e-01, 9.00229588e-02,
          4.54706810e-02, 4.38296609e-02, 2.50315331e-02, 2.11760923e-02,
          6.34550676e-02, 2.62012869e-01, 6.02394249e-03, 1.92950084e-03,
          3.10025970e-03, 3.77259596e-04, 1.23842421e-03, 5.47124147e-02,
          7.03535199e-01, 7.03535199e-01, 2.96619022e-03, 1.24880467e-02,
          2.64455527e-01, 5.54586530e-01, 0., 2.98848283e-03,
          3.67191434e-02, 5.54586530e-01, 5.54586530e-01, 1.77027173e-02 ]
      - [ 4.25440609e-01, 8.82033724e-03, 6.86639696e-02, 4.25440609e-01,
          4.25440609e-01, 1.03109248e-01, 2.74458498e-01, 4.25440609e-01,
          4.25440609e-01, 2.63776720e-01, 1.20089864e-02, 6.51509911e-02,
          5.39555609e-01, 5.39555609e-01, 8.42791125e-02, 1.98639687e-02,
          1.99465171e-01, 5.39555609e-01, 2.89870985e-02, 8.83709360e-03,
          2.07378510e-02, 6.97416723e-01, 6.97416723e-01, 6.01407839e-03,
          3.05771511e-02, 6.26333505e-02, 1.18386470e-01, 5.73498487e-01,
          9.72167868e-03, 2.16646548e-02, 1.03907799e-02, 7.01321587e-02,
          4.14238870e-02, 1.62935238e-02, 5.73498487e-01, 5.73498487e-01,
          5.07632434e-01, 6.38524583e-03, 1.47221396e-02, 4.52780202e-02,
          3.90453517e-01, 2.58112162e-01, 2.17834413e-02, 5.07632434e-01,
          5.07632434e-01, 1.85042232e-01, 1.55850966e-02, 2.03275774e-02,
          3.84215981e-01, 4.03348982e-01, 4.03348982e-01, 4.03348982e-01,
          4.03348982e-01, 4.03348982e-01, 1.70114245e-02, 1.77958123e-02,
          2.06419602e-02, 8.66374187e-03, 6.95845366e-01, 6.95845366e-01,
          1.48289829e-01, 3.36927548e-02, 2.04902366e-02, 1.88203692e-01,
          9.36066434e-02, 1.56936012e-02, 1.05031759e-01, 6.66552722e-01,
          6.66552722e-01, 1.28115773e-01, 5.97938187e-02, 1.71203762e-01,
          3.91705632e-01, 3.91705632e-01, 9.46778059e-03, 1.55765966e-01,
          3.91705632e-01, 3.91705632e-01, 3.91705632e-01, 2.26129115e-01,
          3.91705632e-01, 2.89870985e-02, 8.83709360e-03, 2.07378510e-02,
          6.97416723e-01, 6.97416723e-01, 6.01407839e-03, 3.05771511e-02,
          6.26333505e-02, 1.18386470e-01, 1.40065858e-02, 8.74825846e-03,
          4.37910520e-02, 7.03629971e-01, 7.03629971e-01, 1.58666745e-02,
          1.06404107e-02, 7.75591563e-03, 1.30458623e-02, 9.21378378e-03,
          1.97421270e-03, 3.30362655e-02, 5.44958293e-01, 5.88836849e-01,
          5.88836849e-01, 4.91763093e-02, 2.21465249e-03, 8.92777741e-03,
          1.85042232e-01, 1.55850966e-02, 2.03275774e-02, 3.84215981e-01,
          4.03348982e-01, 4.03348982e-01, 4.03348982e-01, 4.03348982e-01,
          4.03348982e-01, 1.42937496e-01, 7.44062588e-02, 1.70768395e-01,
          6.16651118e-01, 6.16651118e-01, 8.43722448e-02, 1.72945544e-01,
          2.53001630e-01, 2.77773112e-01, 2.02675194e-01, 6.37202039e-02,
          8.00537094e-02, 5.13418376e-01, 5.58137596e-01, 5.58137596e-01,
          9.66897905e-02, 5.64746894e-02, 2.09066018e-01, 3.91705632e-01,
          3.91705632e-01, 9.46778059e-03, 1.55765966e-01, 3.91705632e-01,
          3.91705632e-01, 3.91705632e-01, 2.26129115e-01, 3.91705632e-01,
          5.67343295e-01, 5.67343295e-01, 1.58378333e-02, 6.33369461e-02,
          9.26234946e-02, 1.07023669e-02, 4.58769351e-02, 1.16784930e-01,
          5.67343295e-01, 6.41881347e-01, 2.39152372e-01, 1.23744737e-02,
          1.13925254e-02, 4.04414907e-02, 1.76186487e-02, 1.76337026e-02,
          3.31413180e-01, 6.41881347e-01, 9.21378378e-03, 1.97421270e-03,
          3.30362655e-02, 5.44958293e-01, 5.88836849e-01, 5.88836849e-01,
          4.91763093e-02, 2.21465249e-03, 8.92777741e-03, 8.72503594e-03,
          6.79557165e-03, 1.75998658e-02, 4.57800627e-02, 7.01579630e-01,
          7.01579630e-01, 7.69019723e-02, 6.76744198e-03, 9.00241360e-03,
          1.47039592e-01, 7.16849267e-02, 1.22698732e-02, 6.41841814e-02,
          6.89588785e-01, 6.89588785e-01, 8.01741853e-02, 1.60809681e-02,
          6.58380166e-02, 2.02675194e-01, 6.37202039e-02, 8.00537094e-02,
          5.13418376e-01, 5.58137596e-01, 5.58137596e-01, 9.66897905e-02,
          5.64746894e-02, 2.09066018e-01, 9.59167480e-02, 3.96481574e-01,
          4.50816453e-01, 1.86084956e-01, 5.20531118e-01, 5.20531118e-01,
          1.63998574e-01, 1.05281532e-01, 1.03226230e-01, 4.16552842e-01,
          4.16552842e-01, 4.16552842e-01, 4.16552842e-01, 4.16552842e-01,
          2.14299202e-01, 4.11651693e-02, 1.17654903e-02, 2.83725768e-01,
          6.41881347e-01, 2.39152372e-01, 1.23744737e-02, 1.13925254e-02,
          4.04414907e-02, 1.76186487e-02, 1.76337026e-02, 3.31413180e-01,
          6.41881347e-01, 5.62837064e-01, 1.23463705e-01, 1.23663746e-01,
          2.85111107e-02, 6.21047765e-02, 8.40331241e-02, 4.18997183e-02,
          5.62837064e-01, 5.62837064e-01, 4.16765988e-01, 1.74684972e-01,
          2.90059149e-01, 4.16765988e-01, 4.16765988e-01, 1.07896246e-01,
          3.28109562e-02, 4.16765988e-01, 4.16765988e-01, 1.47039592e-01,
          7.16849267e-02, 1.22698732e-02, 6.41841814e-02, 6.89588785e-01,
          6.89588785e-01, 8.01741853e-02, 1.60809681e-02, 6.58380166e-02,
          4.94432896e-01, 3.93523037e-01, 2.48448849e-02, 1.24160483e-01,
          4.94432896e-01, 4.94432896e-01, 8.55781063e-02, 4.43242341e-02,
          2.85462081e-01, 4.43233728e-01, 4.43233728e-01, 3.29997808e-01,
          1.14824280e-01, 4.16547239e-01, 3.71381462e-01, 5.17726578e-02,
          9.03500151e-03, 4.07896131e-01, 4.16552842e-01, 4.16552842e-01,
          4.16552842e-01, 4.16552842e-01, 4.16552842e-01, 2.14299202e-01,
          4.11651693e-02, 1.17654903e-02, 2.83725768e-01, 4.76393372e-01,
          4.76393372e-01, 2.11215075e-02, 3.83085549e-01, 4.57777232e-01,
          2.04035994e-02, 1.57320853e-02, 1.49382781e-02, 4.28593993e-01,
          5.74739099e-01, 5.74739099e-01, 5.55699803e-02, 8.19683596e-02,
          1.37883753e-01, 1.04304357e-02, 1.08762151e-02, 2.10589916e-02,
          5.51472068e-01, 4.16765988e-01, 1.74684972e-01, 2.90059149e-01,
          4.16765988e-01, 4.16765988e-01, 1.07896246e-01, 3.28109562e-02,
          4.16765988e-01, 4.16765988e-01, 1.91956818e-01, 4.86580692e-02,
          7.64659047e-02, 6.05652630e-01, 6.05652630e-01, 4.46356051e-02,
          9.01512988e-03, 1.10072613e-01, 4.48409319e-01, 2.42030900e-02,
          4.44725379e-02, 1.70855582e-01, 6.92705810e-01, 6.92705810e-01,
          1.72958393e-02, 1.91262607e-02, 1.86428614e-02, 2.51952056e-02 ]
      - [ 4.34188902e-01, 3.81421149e-02, 3.09785716e-02, 4.34188902e-01,
          4.34188902e-01, 4.68217023e-02, 2.20127270e-01, 4.34188902e-01,
          4.34188902e-01, 1.94059059e-01, 3.04299705e-02, 1.04640558e-01,
          5.47521889e-01, 5.47521889e-01, 4.85421419e-02, 6.47158176e-02,
          1.97768912e-01, 5.47521889e-01, 4.29979451e-02, 2.04818193e-02,
          7.35192224e-02, 6.99242771e-01, 6.99242771e-01, 2.63533834e-02,
          6.07285611e-02, 2.59247441e-02, 4.91017774e-02, 5.72620332e-01,
          9.87055432e-03, 7.16305571e-03, 3.28978803e-03, 8.56054276e-02,
          4.28739637e-02, 3.56903933e-02, 5.72620332e-01, 5.72620332e-01,
          4.87566948e-01, 1.41712008e-02, 1.32240867e-02, 2.61548571e-02,
          3.99103850e-01, 3.44277203e-01, 5.56353144e-02, 4.87566948e-01,
          4.87566948e-01, 3.45733732e-01, 1.85224321e-02, 8.93637631e-03,
          3.82149071e-01, 3.82149071e-01, 3.82149071e-01, 3.82149071e-01,
          3.82149071e-01, 3.82149071e-01, 2.41675712e-02, 9.51749552e-03,
          1.65694486e-02, 3.81147936e-02, 7.02397168e-01, 7.02397168e-01,
          5.53606488e-02, 1.79162547e-02, 2.18434967e-02, 3.45374674e-01,
          1.26430944e-01, 4.35862578e-02, 2.26150416e-02, 6.17314398e-01,
          6.17314398e-01, 2.12245628e-01, 4.86411229e-02, 2.15843827e-01,
          4.04710859e-01, 4.04710859e-01, 2.58324668e-02, 5.58071956e-02,
          4.04710859e-01, 4.04710859e-01, 3.35457683e-01, 2.46350974e-01,
          4.04710859e-01, 4.29979451e-02, 2.04818193e-02, 7.35192224e-02,
          6.99242771e-01, 6.99242771e-01, 2.63533834e-02, 6.07285611e-02,
          2.59247441e-02, 4.91017774e-02, 3.18897958e-03, 1.94512005e-03,
          2.55168565e-02, 7.04287231e-01, 7.04287231e-01, 1.50299603e-02,
          5.66896237e-03, 1.26205571e-03, 1.96806155e-03, 4.84925928e-03,
          9.16650519e-03, 4.34442796e-03, 4.57101673e-01, 6.26326263e-01,
          6.26326263e-01, 5.16562443e-03, 8.92497413e-03, 1.65792427e-03,
          3.45733732e-01, 1.85224321e-02, 8.93637631e-03, 3.82149071e-01,
          3.82149071e-01, 3.82149071e-01, 3.82149071e-01, 3.82149071e-01,
          3.82149071e-01, 1.10003643e-01, 2.42493413e-02, 2.23193560e-02,
          6.89918697e-01, 6.89918697e-01, 6.73929416e-03, 7.17111826e-02,
          6.27085343e-02, 1.37222573e-01, 1.04469530e-01, 6.67585246e-03,
          6.63495564e-04, 3.30843687e-01, 6.77741945e-01, 6.20292842e-01,
          4.78753384e-04, 4.30101808e-03, 1.69415504e-01, 4.04710859e-01,
          4.04710859e-01, 2.58324668e-02, 5.58071956e-02, 4.04710859e-01,
          4.04710859e-01, 3.35457683e-01, 2.46350974e-01, 4.04710859e-01,
